<?xml version="1.0"?>
<opencv_storage>
<cascade>
  <stageType>BOOST</stageType>
  <featureType>HAAR</featureType>
  <height>24</height>
  <width>24</width>
  <stageParams>
    <boostType>GAB</boostType>
    <minHitRate>9.9500000476837158e-01</minHitRate>
    <maxFalseAlarm>5.0000000000000000e-01</maxFalseAlarm>
    <weightTrimRate>9.4999999999999996e-01</weightTrimRate>
    <maxDepth>1</maxDepth>
    <maxWeakCount>100</maxWeakCount></stageParams>
  <featureParams>
    <maxCatCount>0</maxCatCount>
    <featSize>1</featSize>
    <mode>BASIC</mode></featureParams>
  <stageNum>20</stageNum>
  <stages>
    <!-- stage 0 -->
    <_>
      <maxWeakCount>4</maxWeakCount>
      <stageThreshold>-1.8849302530288696e+00</stageThreshold>
      <weakClassifiers>
        <_>
          <internalNodes>
            0 -1 122 1.0013216733932495e-01</internalNodes>
          <leafValues>
            -8.9665651321411133e-01 3.3678755164146423e-01</leafValues></_>
        <_>
          <internalNodes>
            0 -1 126 -2.1074101328849792e-02</internalNodes>
          <leafValues>
            2.8382027149200439e-01 -8.0520713329315186e-01</leafValues></_>
        <_>
          <internalNodes>
            0 -1 9 5.8348547667264938e-02</internalNodes>
          <leafValues>
            -6.2673628330230713e-01 5.7861042022705078e-01</leafValues></_>
        <_>
          <internalNodes>
            0 -1 40 3.0110063031315804e-02</internalNodes>
          <leafValues>
            -6.4535772800445557e-01 4.9969217181205750e-01</leafValues></_></weakClassifiers></_>
    <!-- stage 1 -->
    <_>
      <maxWeakCount>6</maxWeakCount>
      <stageThreshold>-1.8700966835021973e+00</stageThreshold>
      <weakClassifiers>
        <_>
          <internalNodes>
            0 -1 101 1.5029263496398926e-01</internalNodes>
          <leafValues>
            -8.7554585933685303e-01 -6.8181820213794708e-02</leafValues></_>
        <_>
          <internalNodes>
            0 -1 16 -1.0239642858505249e-01</internalNodes>
          <leafValues>
            2.7813041210174561e-01 -6.9088339805603027e-01</leafValues></_>
        <_>
          <internalNodes>
            0 -1 183 -1.4115728437900543e-02</internalNodes>
          <leafValues>
            3.8658130168914795e-01 -5.8347058296203613e-01</leafValues></_>
        <_>
          <internalNodes>
            0 -1 166 -4.6854615211486816e-03</internalNodes>
          <leafValues>
            5.2567559480667114e-01 -4.4658917188644409e-01</leafValues></_>
        <_>
          <internalNodes>
            0 -1 48 5.9436708688735962e-02</internalNodes>
          <leafValues>
            -7.1868622303009033e-01 3.7943804264068604e-01</leafValues></_>
        <_>
          <internalNodes>
            0 -1 68 -3.2260120497085154e-04</internalNodes>
          <leafValues>
            4.7502666711807251e-01 -4.7309389710426331e-01</leafValues></_></weakClassifiers></_>
    <!-- stage 2 -->
    <_>
      <maxWeakCount>7</maxWeakCount>
      <stageThreshold>-2.0380711555480957e+00</stageThreshold>
      <weakClassifiers>
        <_>
          <internalNodes>
            0 -1 146 1.0531299561262131e-01</internalNodes>
          <leafValues>
            -8.6941581964492798e-01 -1.9869707524776459e-01</leafValues></_>
        <_>
          <internalNodes>
            0 -1 10 5.0685364753007889e-02</internalNodes>
          <leafValues>
            -7.0813596248626709e-01 1.0278538614511490e-01</leafValues></_>
        <_>
          <internalNodes>
            0 -1 149 2.2159062325954437e-02</internalNodes>
          <leafValues>
            -5.3132617473602295e-01 3.6176252365112305e-01</leafValues></_>
        <_>
          <internalNodes>
            0 -1 192 1.0796245187520981e-02</internalNodes>
          <leafValues>
            -4.8199847340583801e-01 3.5664057731628418e-01</leafValues></_>
        <_>
          <internalNodes>
            0 -1 95 -3.7189833819866180e-03</internalNodes>
          <leafValues>
            3.9925053715705872e-01 -5.0214177370071411e-01</leafValues></_>
        <_>
          <internalNodes>
            0 -1 91 -7.3552317917346954e-03</internalNodes>
          <leafValues>
            4.7876033186912537e-01 -3.6719787120819092e-01</leafValues></_>
        <_>
          <internalNodes>
            0 -1 162 -5.4416423663496971e-03</internalNodes>
          <leafValues>
            4.8503687977790833e-01 -3.1788641214370728e-01</leafValues></_></weakClassifiers></_>
    <!-- stage 3 -->
    <_>
      <maxWeakCount>9</maxWeakCount>
      <stageThreshold>-1.3429213762283325e+00</stageThreshold>
      <weakClassifiers>
        <_>
          <internalNodes>
            0 -1 147 1.2772318720817566e-01</internalNodes>
          <leafValues>
            -8.2851016521453857e-01 -1.9028340280056000e-01</leafValues></_>
        <_>
          <internalNodes>
            0 -1 1 4.3844774365425110e-02</internalNodes>
          <leafValues>
            -6.2377434968948364e-01 1.8150153756141663e-01</leafValues></_>
        <_>
          <internalNodes>
            0 -1 39 4.3423391878604889e-02</internalNodes>
          <leafValues>
            -4.1098636388778687e-01 3.1872898340225220e-01</leafValues></_>
        <_>
          <internalNodes>
            0 -1 61 -6.4066424965858459e-02</internalNodes>
          <leafValues>
            4.8548474907875061e-01 -3.2492411136627197e-01</leafValues></_>
        <_>
          <internalNodes>
            0 -1 230 4.5823823893442750e-04</internalNodes>
          <leafValues>
            -6.2751394510269165e-01 2.4915215373039246e-01</leafValues></_>
        <_>
          <internalNodes>
            0 -1 84 1.3484643772244453e-02</internalNodes>
          <leafValues>
            -2.4652132391929626e-01 5.6364011764526367e-01</leafValues></_>
        <_>
          <internalNodes>
            0 -1 2 -7.7817967394366860e-04</internalNodes>
          <leafValues>
            2.9821476340293884e-01 -5.3483724594116211e-01</leafValues></_>
        <_>
          <internalNodes>
            0 -1 182 -7.8473323956131935e-03</internalNodes>
          <leafValues>
            2.1951009333133698e-01 -5.0346928834915161e-01</leafValues></_>
        <_>
          <internalNodes>
            0 -1 20 -5.2472716197371483e-03</internalNodes>
          <leafValues>
            5.7926440238952637e-01 -2.0997223258018494e-01</leafValues></_></weakClassifiers></_>
    <!-- stage 4 -->
    <_>
      <maxWeakCount>11</maxWeakCount>
      <stageThreshold>-1.4703427553176880e+00</stageThreshold>
      <weakClassifiers>
        <_>
          <internalNodes>
            0 -1 151 7.0271251024678349e-04</internalNodes>
          <leafValues>
            -7.7018046379089355e-01 -7.0866145193576813e-02</leafValues></_>
        <_>
          <internalNodes>
            0 -1 120 4.5969411730766296e-02</internalNodes>
          <leafValues>
            -5.2057933807373047e-01 1.9074437022209167e-01</leafValues></_>
        <_>
          <internalNodes>
            0 -1 176 6.1303798109292984e-02</internalNodes>
          <leafValues>
            -4.3743187189102173e-01 2.7246880531311035e-01</leafValues></_>
        <_>
          <internalNodes>
            0 -1 127 -2.0893812179565430e-03</internalNodes>
          <leafValues>
            4.9866220355033875e-01 -2.3463560640811920e-01</leafValues></_>
        <_>
          <internalNodes>
            0 -1 5 8.3788204938173294e-03</internalNodes>
          <leafValues>
            -1.8104569613933563e-01 7.1349960565567017e-01</leafValues></_>
        <_>
          <internalNodes>
            0 -1 229 -1.5200607595033944e-04</internalNodes>
          <leafValues>
            -5.5842167139053345e-01 2.2672006487846375e-01</leafValues></_>
        <_>
          <internalNodes>
            0 -1 4 1.4207449555397034e-01</internalNodes>
          <leafValues>
            1.7948427796363831e-01 -8.5313236713409424e-01</leafValues></_>
        <_>
          <internalNodes>
            0 -1 217 -8.9792319340631366e-04</internalNodes>
          <leafValues>
            -7.3530167341232300e-01 1.2022566795349121e-01</leafValues></_>
        <_>
          <internalNodes>
            0 -1 89 2.0612794905900955e-02</internalNodes>
          <leafValues>
            1.1775059998035431e-01 -8.8385593891143799e-01</leafValues></_>
        <_>
          <internalNodes>
            0 -1 83 -1.1650183238089085e-02</internalNodes>
          <leafValues>
            5.6871891021728516e-01 -2.3879878222942352e-01</leafValues></_>
        <_>
          <internalNodes>
            0 -1 81 -5.7193171232938766e-03</internalNodes>
          <leafValues>
            4.0621972084045410e-01 -3.5545596480369568e-01</leafValues></_></weakClassifiers></_>
    <!-- stage 5 -->
    <_>
      <maxWeakCount>10</maxWeakCount>
      <stageThreshold>-1.6349736452102661e+00</stageThreshold>
      <weakClassifiers>
        <_>
          <internalNodes>
            0 -1 187 3.4934069961309433e-02</internalNodes>
          <leafValues>
            -8.1573498249053955e-01 -1.4953270554542542e-01</leafValues></_>
        <_>
          <internalNodes>
            0 -1 12 -5.1436345092952251e-03</internalNodes>
          <leafValues>
            1.6557808220386505e-01 -5.4071396589279175e-01</leafValues></_>
        <_>
          <internalNodes>
            0 -1 44 -1.2709417939186096e-01</internalNodes>
          <leafValues>
            3.9320966601371765e-01 -3.4434735774993896e-01</leafValues></_>
        <_>
          <internalNodes>
            0 -1 173 -3.7312158383429050e-04</internalNodes>
          <leafValues>
            4.8735672235488892e-01 -2.4291756749153137e-01</leafValues></_>
        <_>
          <internalNodes>
            0 -1 31 3.5255183465778828e-03</internalNodes>
          <leafValues>
            -3.2593786716461182e-01 3.5341191291809082e-01</leafValues></_>
        <_>
          <internalNodes>
            0 -1 159 1.2883704155683517e-02</internalNodes>
          <leafValues>
            -1.5827544033527374e-01 6.6071945428848267e-01</leafValues></_>
        <_>
          <internalNodes>
            0 -1 18 8.4765453357249498e-04</internalNodes>
          <leafValues>
            1.7348854243755341e-01 -7.5048840045928955e-01</leafValues></_>
        <_>
          <internalNodes>
            0 -1 160 -2.4546845816075802e-03</internalNodes>
          <leafValues>
            4.1112032532691956e-01 -2.8906771540641785e-01</leafValues></_>
        <_>
          <internalNodes>
            0 -1 205 -8.2858582027256489e-04</internalNodes>
          <leafValues>
            4.1258007287979126e-01 -2.6789063215255737e-01</leafValues></_>
        <_>
          <internalNodes>
            0 -1 148 6.5136635676026344e-03</internalNodes>
          <leafValues>
            -2.0311446487903595e-01 5.1840060949325562e-01</leafValues></_></weakClassifiers></_>
    <!-- stage 6 -->
    <_>
      <maxWeakCount>8</maxWeakCount>
      <stageThreshold>-1.5485857725143433e+00</stageThreshold>
      <weakClassifiers>
        <_>
          <internalNodes>
            0 -1 170 -4.2984217405319214e-02</internalNodes>
          <leafValues>
            5.8823531866073608e-01 -7.3298430442810059e-01</leafValues></_>
        <_>
          <internalNodes>
            0 -1 145 -1.3541082153096795e-03</internalNodes>
          <leafValues>
            1.6129036247730255e-01 -5.4748541116714478e-01</leafValues></_>
        <_>
          <internalNodes>
            0 -1 105 -4.3378505855798721e-02</internalNodes>
          <leafValues>
            6.1573588848114014e-01 -2.2749172151088715e-01</leafValues></_>
        <_>
          <internalNodes>
            0 -1 155 -2.2413374390453100e-03</internalNodes>
          <leafValues>
            5.3380954265594482e-01 -2.2287392616271973e-01</leafValues></_>
        <_>
          <internalNodes>
            0 -1 167 -4.7784731723368168e-03</internalNodes>
          <leafValues>
            5.6519138813018799e-01 -2.1270444989204407e-01</leafValues></_>
        <_>
          <internalNodes>
            0 -1 165 -2.2187829017639160e-03</internalNodes>
          <leafValues>
            4.7352468967437744e-01 -2.5295940041542053e-01</leafValues></_>
        <_>
          <internalNodes>
            0 -1 143 -1.4977419050410390e-03</internalNodes>
          <leafValues>
            2.2821916639804840e-01 -4.7684723138809204e-01</leafValues></_>
        <_>
          <internalNodes>
            0 -1 128 -9.1841137036681175e-03</internalNodes>
          <leafValues>
            3.9827653765678406e-01 -3.1476211547851563e-01</leafValues></_></weakClassifiers></_>
    <!-- stage 7 -->
    <_>
      <maxWeakCount>11</maxWeakCount>
      <stageThreshold>-1.6328989267349243e+00</stageThreshold>
      <weakClassifiers>
        <_>
          <internalNodes>
            0 -1 136 2.1244958043098450e-02</internalNodes>
          <leafValues>
            -7.4841630458831787e-01 9.3333333730697632e-02</leafValues></_>
        <_>
          <internalNodes>
            0 -1 134 -4.3793119490146637e-02</internalNodes>
          <leafValues>
            2.7674272656440735e-01 -4.0251204371452332e-01</leafValues></_>
        <_>
          <internalNodes>
            0 -1 62 -6.8152330815792084e-02</internalNodes>
          <leafValues>
            4.2817884683609009e-01 -2.7309548854827881e-01</leafValues></_>
        <_>
          <internalNodes>
            0 -1 26 -4.6163244405761361e-04</internalNodes>
          <leafValues>
            -6.1089968681335449e-01 1.6493172943592072e-01</leafValues></_>
        <_>
          <internalNodes>
            0 -1 26 4.1460138163529336e-04</internalNodes>
          <leafValues>
            2.0798417925834656e-01 -4.8276665806770325e-01</leafValues></_>
        <_>
          <internalNodes>
            0 -1 113 -2.2363923490047455e-03</internalNodes>
          <leafValues>
            5.0987046957015991e-01 -2.1107509732246399e-01</leafValues></_>
        <_>
          <internalNodes>
            0 -1 85 2.9168769717216492e-02</internalNodes>
          <leafValues>
            -2.4346412718296051e-01 4.4332656264305115e-01</leafValues></_>
        <_>
          <internalNodes>
            0 -1 110 7.6529649086296558e-03</internalNodes>
          <leafValues>
            1.3742347061634064e-01 -7.5226598978042603e-01</leafValues></_>
        <_>
          <internalNodes>
            0 -1 88 -8.7643250823020935e-02</internalNodes>
          <leafValues>
            -9.5784306526184082e-01 8.5622914135456085e-02</leafValues></_>
        <_>
          <internalNodes>
            0 -1 152 3.2820999622344971e-03</internalNodes>
          <leafValues>
            -1.6427303850650787e-01 6.9035047292709351e-01</leafValues></_>
        <_>
          <internalNodes>
            0 -1 141 -1.0547209531068802e-02</internalNodes>
          <leafValues>
            4.8246356844902039e-01 -1.9654861092567444e-01</leafValues></_></weakClassifiers></_>
    <!-- stage 8 -->
    <_>
      <maxWeakCount>11</maxWeakCount>
      <stageThreshold>-1.6557321548461914e+00</stageThreshold>
      <weakClassifiers>
        <_>
          <internalNodes>
            0 -1 92 3.1118476390838623e-01</internalNodes>
          <leafValues>
            -8.1354051828384399e-01 -3.1182795763015747e-01</leafValues></_>
        <_>
          <internalNodes>
            0 -1 82 -1.7395861214026809e-03</internalNodes>
          <leafValues>
            1.4503353834152222e-01 -5.2422291040420532e-01</leafValues></_>
        <_>
          <internalNodes>
            0 -1 34 -3.0377019196748734e-02</internalNodes>
          <leafValues>
            3.6002999544143677e-01 -2.7868041396141052e-01</leafValues></_>
        <_>
          <internalNodes>
            0 -1 196 -1.5183671377599239e-02</internalNodes>
          <leafValues>
            3.0110979080200195e-01 -3.0656132102012634e-01</leafValues></_>
        <_>
          <internalNodes>
            0 -1 109 5.4029617458581924e-03</internalNodes>
          <leafValues>
            -1.6021764278411865e-01 5.7723993062973022e-01</leafValues></_>
        <_>
          <internalNodes>
            0 -1 41 -2.9138027457520366e-04</internalNodes>
          <leafValues>
            -5.2979934215545654e-01 1.6040785610675812e-01</leafValues></_>
        <_>
          <internalNodes>
            0 -1 54 6.4023071900010109e-03</internalNodes>
          <leafValues>
            -1.8315082788467407e-01 4.0333655476570129e-01</leafValues></_>
        <_>
          <internalNodes>
            0 -1 35 -1.0012373328208923e-02</internalNodes>
          <leafValues>
            4.9648696184158325e-01 -1.6872379183769226e-01</leafValues></_>
        <_>
          <internalNodes>
            0 -1 133 -3.0054952949285507e-02</internalNodes>
          <leafValues>
            3.0913665890693665e-01 -2.8942710161209106e-01</leafValues></_>
        <_>
          <internalNodes>
            0 -1 142 -1.0910734999924898e-03</internalNodes>
          <leafValues>
            4.7179877758026123e-01 -2.2497941553592682e-01</leafValues></_>
        <_>
          <internalNodes>
            0 -1 45 -6.3369204290211201e-03</internalNodes>
          <leafValues>
            5.1951563358306885e-01 -1.7055726051330566e-01</leafValues></_></weakClassifiers></_>
    <!-- stage 9 -->
    <_>
      <maxWeakCount>13</maxWeakCount>
      <stageThreshold>-1.4052488803863525e+00</stageThreshold>
      <weakClassifiers>
        <_>
          <internalNodes>
            0 -1 6 4.3183052539825439e-01</internalNodes>
          <leafValues>
            -8.0898874998092651e-01 -3.4482759237289429e-01</leafValues></_>
        <_>
          <internalNodes>
            0 -1 198 -5.1472225459292531e-04</internalNodes>
          <leafValues>
            -5.8406084775924683e-01 -2.0525585860013962e-02</leafValues></_>
        <_>
          <internalNodes>
            0 -1 56 -3.2981561962515116e-03</internalNodes>
          <leafValues>
            -7.9226905107498169e-01 8.9529655873775482e-02</leafValues></_>
        <_>
          <internalNodes>
            0 -1 199 -3.0738664790987968e-03</internalNodes>
          <leafValues>
            -7.7236425876617432e-01 1.2580056488513947e-01</leafValues></_>
        <_>
          <internalNodes>
            0 -1 169 -1.1227668437641114e-04</internalNodes>
          <leafValues>
            2.0820754766464233e-01 -3.4455996751785278e-01</leafValues></_>
        <_>
          <internalNodes>
            0 -1 161 -2.7917355764657259e-03</internalNodes>
          <leafValues>
            4.0937459468841553e-01 -2.0164057612419128e-01</leafValues></_>
        <_>
          <internalNodes>
            0 -1 94 4.2090333998203278e-02</internalNodes>
          <leafValues>
            -4.8321273922920227e-01 1.7417088150978088e-01</leafValues></_>
        <_>
          <internalNodes>
            0 -1 49 -1.8710304051637650e-02</internalNodes>
          <leafValues>
            5.0965356826782227e-01 -1.7460379004478455e-01</leafValues></_>
        <_>
          <internalNodes>
            0 -1 58 -1.1311260750517249e-03</internalNodes>
          <leafValues>
            -7.2152590751647949e-01 1.2114064395427704e-01</leafValues></_>
        <_>
          <internalNodes>
            0 -1 46 -2.7537471614778042e-03</internalNodes>
          <leafValues>
            3.0682021379470825e-01 -2.7681726217269897e-01</leafValues></_>
        <_>
          <internalNodes>
            0 -1 7 -3.3593666739761829e-04</internalNodes>
          <leafValues>
            -6.5868234634399414e-01 1.2163402885198593e-01</leafValues></_>
        <_>
          <internalNodes>
            0 -1 52 1.0866742581129074e-02</internalNodes>
          <leafValues>
            -2.2896981239318848e-01 3.7894481420516968e-01</leafValues></_>
        <_>
          <internalNodes>
            0 -1 111 1.6379368025809526e-03</internalNodes>
          <leafValues>
            -2.3602519929409027e-01 3.3699950575828552e-01</leafValues></_></weakClassifiers></_>
    <!-- stage 10 -->
    <_>
      <maxWeakCount>10</maxWeakCount>
      <stageThreshold>-1.5200892686843872e+00</stageThreshold>
      <weakClassifiers>
        <_>
          <internalNodes>
            0 -1 189 1.6463629901409149e-02</internalNodes>
          <leafValues>
            -7.2497826814651489e-01 4.1935482621192932e-01</leafValues></_>
        <_>
          <internalNodes>
            0 -1 3 -7.6798632740974426e-02</internalNodes>
          <leafValues>
            1.3247965276241302e-01 -4.7786349058151245e-01</leafValues></_>
        <_>
          <internalNodes>
            0 -1 8 8.0046011134982109e-04</internalNodes>
          <leafValues>
            9.7367048263549805e-02 -8.1231755018234253e-01</leafValues></_>
        <_>
          <internalNodes>
            0 -1 29 3.5605227458290756e-04</internalNodes>
          <leafValues>
            1.8289753794670105e-01 -5.2094382047653198e-01</leafValues></_>
        <_>
          <internalNodes>
            0 -1 19 -3.3053214428946376e-04</internalNodes>
          <leafValues>
            -4.5177045464515686e-01 1.8338498473167419e-01</leafValues></_>
        <_>
          <internalNodes>
            0 -1 214 -3.8123563863337040e-03</internalNodes>
          <leafValues>
            -6.9594883918762207e-01 1.1984107643365860e-01</leafValues></_>
        <_>
          <internalNodes>
            0 -1 190 6.2012542039155960e-03</internalNodes>
          <leafValues>
            -2.1840900182723999e-01 3.7303417921066284e-01</leafValues></_>
        <_>
          <internalNodes>
            0 -1 137 9.9001508206129074e-03</internalNodes>
          <leafValues>
            -1.9351406395435333e-01 4.1655537486076355e-01</leafValues></_>
        <_>
          <internalNodes>
            0 -1 216 3.3937639091163874e-04</internalNodes>
          <leafValues>
            1.3881437480449677e-01 -5.8004850149154663e-01</leafValues></_>
        <_>
          <internalNodes>
            0 -1 178 -8.2155391573905945e-03</internalNodes>
          <leafValues>
            2.8630107641220093e-01 -2.8457573056221008e-01</leafValues></_></weakClassifiers></_>
    <!-- stage 11 -->
    <_>
      <maxWeakCount>13</maxWeakCount>
      <stageThreshold>-1.5598598718643188e+00</stageThreshold>
      <weakClassifiers>
        <_>
          <internalNodes>
            0 -1 27 -2.0032946020364761e-02</internalNodes>
          <leafValues>
            2.2727273404598236e-01 -7.3063379526138306e-01</leafValues></_>
        <_>
          <internalNodes>
            0 -1 228 -3.0524563044309616e-04</internalNodes>
          <leafValues>
            -5.9858155250549316e-01 -1.2684257701039314e-02</leafValues></_>
        <_>
          <internalNodes>
            0 -1 202 -7.7752652578055859e-03</internalNodes>
          <leafValues>
            2.7445602416992188e-01 -2.9252323508262634e-01</leafValues></_>
        <_>
          <internalNodes>
            0 -1 100 1.6357890854123980e-04</internalNodes>
          <leafValues>
            -2.0360960066318512e-01 3.8950651884078979e-01</leafValues></_>
        <_>
          <internalNodes>
            0 -1 79 7.7569946646690369e-02</internalNodes>
          <leafValues>
            1.5353243052959442e-01 -6.3996070623397827e-01</leafValues></_>
        <_>
          <internalNodes>
            0 -1 215 -1.0767946951091290e-03</internalNodes>
          <leafValues>
            2.3027789592742920e-01 -3.4919914603233337e-01</leafValues></_>
        <_>
          <internalNodes>
            0 -1 125 -1.7104437574744225e-02</internalNodes>
          <leafValues>
            -7.1040707826614380e-01 1.3219492137432098e-01</leafValues></_>
        <_>
          <internalNodes>
            0 -1 224 -7.3625420918688178e-04</internalNodes>
          <leafValues>
            4.1884177923202515e-01 -2.0300923287868500e-01</leafValues></_>
        <_>
          <internalNodes>
            0 -1 193 1.9369717920199037e-03</internalNodes>
          <leafValues>
            -2.0792725682258606e-01 4.2816102504730225e-01</leafValues></_>
        <_>
          <internalNodes>
            0 -1 117 -9.2485360801219940e-04</internalNodes>
          <leafValues>
            3.9779779314994812e-01 -2.0608232915401459e-01</leafValues></_>
        <_>
          <internalNodes>
            0 -1 227 2.1774281049147248e-04</internalNodes>
          <leafValues>
            1.6156183183193207e-01 -5.1238232851028442e-01</leafValues></_>
        <_>
          <internalNodes>
            0 -1 168 -5.4487646557390690e-03</internalNodes>
          <leafValues>
            5.1694494485855103e-01 -1.5968866646289825e-01</leafValues></_>
        <_>
          <internalNodes>
            0 -1 90 4.6487855724990368e-03</internalNodes>
          <leafValues>
            -1.7091487348079681e-01 4.0710827708244324e-01</leafValues></_></weakClassifiers></_>
    <!-- stage 12 -->
    <_>
      <maxWeakCount>13</maxWeakCount>
      <stageThreshold>-1.3869581222534180e+00</stageThreshold>
      <weakClassifiers>
        <_>
          <internalNodes>
            0 -1 72 1.8238203600049019e-02</internalNodes>
          <leafValues>
            -7.2072851657867432e-01 4.0740740299224854e-01</leafValues></_>
        <_>
          <internalNodes>
            0 -1 53 -4.1795618832111359e-02</internalNodes>
          <leafValues>
            4.5219522714614868e-01 -2.8642532229423523e-01</leafValues></_>
        <_>
          <internalNodes>
            0 -1 223 -5.7455815840512514e-04</internalNodes>
          <leafValues>
            -7.3388296365737915e-01 9.1757200658321381e-02</leafValues></_>
        <_>
          <internalNodes>
            0 -1 164 9.8956078290939331e-02</internalNodes>
          <leafValues>
            -2.0824401080608368e-01 3.3449161052703857e-01</leafValues></_>
        <_>
          <internalNodes>
            0 -1 15 -3.6010993644595146e-03</internalNodes>
          <leafValues>
            3.5314407944679260e-01 -1.9764424860477448e-01</leafValues></_>
        <_>
          <internalNodes>
            0 -1 188 -6.4631181885488331e-05</internalNodes>
          <leafValues>
            3.0677303671836853e-01 -2.2377437353134155e-01</leafValues></_>
        <_>
          <internalNodes>
            0 -1 38 -2.1018490951973945e-04</internalNodes>
          <leafValues>
            -4.6419331431388855e-01 1.4336425065994263e-01</leafValues></_>
        <_>
          <internalNodes>
            0 -1 25 1.8097914755344391e-02</internalNodes>
          <leafValues>
            -3.0135759711265564e-01 2.4419534206390381e-01</leafValues></_>
        <_>
          <internalNodes>
            0 -1 97 -1.0414172429591417e-03</internalNodes>
          <leafValues>
            2.2800251841545105e-01 -3.0193972587585449e-01</leafValues></_>
        <_>
          <internalNodes>
            0 -1 207 1.2326566502451897e-04</internalNodes>
          <leafValues>
            1.6861878335475922e-01 -4.3344986438751221e-01</leafValues></_>
        <_>
          <internalNodes>
            0 -1 208 -1.7309520626440644e-04</internalNodes>
          <leafValues>
            -4.5283421874046326e-01 1.7531792819499969e-01</leafValues></_>
        <_>
          <internalNodes>
            0 -1 184 -3.6578450817614794e-03</internalNodes>
          <leafValues>
            3.5977619886398315e-01 -2.0672801136970520e-01</leafValues></_>
        <_>
          <internalNodes>
            0 -1 57 1.0589838493615389e-03</internalNodes>
          <leafValues>
            8.4409125149250031e-02 -8.5396450757980347e-01</leafValues></_></weakClassifiers></_>
    <!-- stage 13 -->
    <_>
      <maxWeakCount>14</maxWeakCount>
      <stageThreshold>-1.5890966653823853e+00</stageThreshold>
      <weakClassifiers>
        <_>
          <internalNodes>
            0 -1 177 -4.1676361113786697e-02</internalNodes>
          <leafValues>
            -3.6553102996912167e-18 -7.3873871564865112e-01</leafValues></_>
        <_>
          <internalNodes>
            0 -1 99 2.7348484843969345e-02</internalNodes>
          <leafValues>
            -3.2231938838958740e-01 2.7567625045776367e-01</leafValues></_>
        <_>
          <internalNodes>
            0 -1 70 -5.5269496515393257e-03</internalNodes>
          <leafValues>
            -4.0173947811126709e-01 1.5637528896331787e-01</leafValues></_>
        <_>
          <internalNodes>
            0 -1 225 -3.3817117218859494e-04</internalNodes>
          <leafValues>
            2.0382790267467499e-01 -3.1310486793518066e-01</leafValues></_>
        <_>
          <internalNodes>
            0 -1 108 -3.3953245729207993e-02</internalNodes>
          <leafValues>
            -6.7841809988021851e-01 1.3441520929336548e-01</leafValues></_>
        <_>
          <internalNodes>
            0 -1 64 -4.0365293622016907e-02</internalNodes>
          <leafValues>
            2.3812492191791534e-01 -2.9841896891593933e-01</leafValues></_>
        <_>
          <internalNodes>
            0 -1 154 1.2185046449303627e-02</internalNodes>
          <leafValues>
            1.4763735234737396e-01 -6.3502877950668335e-01</leafValues></_>
        <_>
          <internalNodes>
            0 -1 28 6.7087873816490173e-02</internalNodes>
          <leafValues>
            6.1009116470813751e-02 -1.</leafValues></_>
        <_>
          <internalNodes>
            0 -1 129 1.8328205915167928e-03</internalNodes>
          <leafValues>
            -1.7318597435951233e-01 4.5917171239852905e-01</leafValues></_>
        <_>
          <internalNodes>
            0 -1 96 -9.5054037868976593e-02</internalNodes>
          <leafValues>
            -9.3622416257858276e-01 9.1732174158096313e-02</leafValues></_>
        <_>
          <internalNodes>
            0 -1 24 1.3744411990046501e-02</internalNodes>
          <leafValues>
            -1.9065940380096436e-01 4.0720137953758240e-01</leafValues></_>
        <_>
          <internalNodes>
            0 -1 60 1.4670520322397351e-03</internalNodes>
          <leafValues>
            9.2074364423751831e-02 -8.3991730213165283e-01</leafValues></_>
        <_>
          <internalNodes>
            0 -1 220 2.8647586703300476e-02</internalNodes>
          <leafValues>
            -2.7355834841728210e-01 2.4103623628616333e-01</leafValues></_>
        <_>
          <internalNodes>
            0 -1 77 1.0164918377995491e-02</internalNodes>
          <leafValues>
            -2.0299790799617767e-01 3.9970415830612183e-01</leafValues></_></weakClassifiers></_>
    <!-- stage 14 -->
    <_>
      <maxWeakCount>12</maxWeakCount>
      <stageThreshold>-1.6446930170059204e+00</stageThreshold>
      <weakClassifiers>
        <_>
          <internalNodes>
            0 -1 124 -9.9828615784645081e-03</internalNodes>
          <leafValues>
            1.7948718369007111e-01 -7.2480279207229614e-01</leafValues></_>
        <_>
          <internalNodes>
            0 -1 135 -2.0942492483300157e-05</internalNodes>
          <leafValues>
            1.9307361543178558e-01 -3.7686753273010254e-01</leafValues></_>
        <_>
          <internalNodes>
            0 -1 33 -5.0894431769847870e-02</internalNodes>
          <leafValues>
            2.7576345205307007e-01 -2.7392062544822693e-01</leafValues></_>
        <_>
          <internalNodes>
            0 -1 98 1.8156621605157852e-02</internalNodes>
          <leafValues>
            -1.6555850207805634e-01 4.4499871134757996e-01</leafValues></_>
        <_>
          <internalNodes>
            0 -1 36 -3.2074052840471268e-02</internalNodes>
          <leafValues>
            3.5767775774002075e-01 -1.9046500325202942e-01</leafValues></_>
        <_>
          <internalNodes>
            0 -1 201 -1.6342900926247239e-04</internalNodes>
          <leafValues>
            3.1165647506713867e-01 -2.2736744582653046e-01</leafValues></_>
        <_>
          <internalNodes>
            0 -1 222 -2.9330374673008919e-02</internalNodes>
          <leafValues>
            -7.4365246295928955e-01 1.4009687304496765e-01</leafValues></_>
        <_>
          <internalNodes>
            0 -1 131 -4.2039406253024936e-04</internalNodes>
          <leafValues>
            3.9825758337974548e-01 -2.0906877517700195e-01</leafValues></_>
        <_>
          <internalNodes>
            0 -1 130 6.5319339046254754e-04</internalNodes>
          <leafValues>
            -1.6209807991981506e-01 4.3611592054367065e-01</leafValues></_>
        <_>
          <internalNodes>
            0 -1 37 1.4231575187295675e-03</internalNodes>
          <leafValues>
            -1.6788686811923981e-01 3.9104440808296204e-01</leafValues></_>
        <_>
          <internalNodes>
            0 -1 197 -1.2278354261070490e-03</internalNodes>
          <leafValues>
            4.2897063493728638e-01 -1.5227554738521576e-01</leafValues></_>
        <_>
          <internalNodes>
            0 -1 204 -1.4117115177214146e-02</internalNodes>
          <leafValues>
            2.3796094954013824e-01 -2.8994780778884888e-01</leafValues></_></weakClassifiers></_>
    <!-- stage 15 -->
    <_>
      <maxWeakCount>17</maxWeakCount>
      <stageThreshold>-1.6045190095901489e+00</stageThreshold>
      <weakClassifiers>
        <_>
          <internalNodes>
            0 -1 102 1.8512841314077377e-02</internalNodes>
          <leafValues>
            -7.4139535427093506e-01 -2.1904762089252472e-01</leafValues></_>
        <_>
          <internalNodes>
            0 -1 194 -4.1680894792079926e-03</internalNodes>
          <leafValues>
            -6.6626764601096511e-04 -5.2262037992477417e-01</leafValues></_>
        <_>
          <internalNodes>
            0 -1 55 -1.2169846013421193e-04</internalNodes>
          <leafValues>
            -5.0418037176132202e-01 1.2287440150976181e-01</leafValues></_>
        <_>
          <internalNodes>
            0 -1 115 1.8733631819486618e-02</internalNodes>
          <leafValues>
            -2.4084970355033875e-01 2.7948802709579468e-01</leafValues></_>
        <_>
          <internalNodes>
            0 -1 116 -5.1245669601485133e-04</internalNodes>
          <leafValues>
            2.4342663586139679e-01 -2.6487466692924500e-01</leafValues></_>
        <_>
          <internalNodes>
            0 -1 218 -1.4522715355269611e-04</internalNodes>
          <leafValues>
            -5.0525009632110596e-01 1.3160996139049530e-01</leafValues></_>
        <_>
          <internalNodes>
            0 -1 74 1.8566861748695374e-02</internalNodes>
          <leafValues>
            -5.4983621835708618e-01 1.1677552014589310e-01</leafValues></_>
        <_>
          <internalNodes>
            0 -1 13 7.7884316444396973e-02</internalNodes>
          <leafValues>
            -1.3617561757564545e-01 4.9298140406608582e-01</leafValues></_>
        <_>
          <internalNodes>
            0 -1 104 -8.0966837704181671e-03</internalNodes>
          <leafValues>
            5.7029366493225098e-01 -1.1909401416778564e-01</leafValues></_>
        <_>
          <internalNodes>
            0 -1 226 -9.0249779168516397e-04</internalNodes>
          <leafValues>
            -4.6749398112297058e-01 1.5028551220893860e-01</leafValues></_>
        <_>
          <internalNodes>
            0 -1 206 -3.1986925750970840e-04</internalNodes>
          <leafValues>
            -4.1850629448890686e-01 1.6363003849983215e-01</leafValues></_>
        <_>
          <internalNodes>
            0 -1 140 -1.4581714058294892e-03</internalNodes>
          <leafValues>
            3.6192494630813599e-01 -2.0373861491680145e-01</leafValues></_>
        <_>
          <internalNodes>
            0 -1 87 -5.5719087831676006e-03</internalNodes>
          <leafValues>
            6.3017052412033081e-01 -1.1006329953670502e-01</leafValues></_>
        <_>
          <internalNodes>
            0 -1 119 -2.9837546753697097e-04</internalNodes>
          <leafValues>
            2.8111994266510010e-01 -2.4143391847610474e-01</leafValues></_>
        <_>
          <internalNodes>
            0 -1 121 -8.1719786976464093e-05</internalNodes>
          <leafValues>
            2.7975171804428101e-01 -2.4287079274654388e-01</leafValues></_>
        <_>
          <internalNodes>
            0 -1 139 -1.6118506900966167e-03</internalNodes>
          <leafValues>
            3.6886194348335266e-01 -1.8758065998554230e-01</leafValues></_>
        <_>
          <internalNodes>
            0 -1 22 2.8961279895156622e-04</internalNodes>
          <leafValues>
            1.2677188217639923e-01 -5.9712612628936768e-01</leafValues></_></weakClassifiers></_>
    <!-- stage 16 -->
    <_>
      <maxWeakCount>15</maxWeakCount>
      <stageThreshold>-1.5650404691696167e+00</stageThreshold>
      <weakClassifiers>
        <_>
          <internalNodes>
            0 -1 67 2.1815317869186401e-01</internalNodes>
          <leafValues>
            -7.5999999046325684e-01 -3.3333334326744080e-01</leafValues></_>
        <_>
          <internalNodes>
            0 -1 78 -3.6706957034766674e-03</internalNodes>
          <leafValues>
            1.7578209936618805e-01 -3.4715154767036438e-01</leafValues></_>
        <_>
          <internalNodes>
            0 -1 219 -1.0416787699796259e-04</internalNodes>
          <leafValues>
            -5.1310545206069946e-01 1.1846727877855301e-01</leafValues></_>
        <_>
          <internalNodes>
            0 -1 180 -1.2667128816246986e-02</internalNodes>
          <leafValues>
            3.7225925922393799e-01 -1.7554137110710144e-01</leafValues></_>
        <_>
          <internalNodes>
            0 -1 21 -2.9220792930573225e-04</internalNodes>
          <leafValues>
            -5.0427013635635376e-01 1.6833880543708801e-01</leafValues></_>
        <_>
          <internalNodes>
            0 -1 153 1.6790114343166351e-01</internalNodes>
          <leafValues>
            -2.4750819802284241e-01 2.5220206379890442e-01</leafValues></_>
        <_>
          <internalNodes>
            0 -1 112 -8.3948045969009399e-02</internalNodes>
          <leafValues>
            -8.6501878499984741e-01 7.9801701009273529e-02</leafValues></_>
        <_>
          <internalNodes>
            0 -1 118 -1.7564296722412109e-03</internalNodes>
          <leafValues>
            3.8830029964447021e-01 -1.7586684226989746e-01</leafValues></_>
        <_>
          <internalNodes>
            0 -1 69 -6.6572159528732300e-02</internalNodes>
          <leafValues>
            -7.1482288837432861e-01 9.5342136919498444e-02</leafValues></_>
        <_>
          <internalNodes>
            0 -1 11 -4.3128977267770097e-05</internalNodes>
          <leafValues>
            1.7799089848995209e-01 -3.2714810967445374e-01</leafValues></_>
        <_>
          <internalNodes>
            0 -1 47 -2.8950855135917664e-01</internalNodes>
          <leafValues>
            -6.7946636676788330e-01 9.9985256791114807e-02</leafValues></_>
        <_>
          <internalNodes>
            0 -1 66 -1.6061908099800348e-03</internalNodes>
          <leafValues>
            3.7571209669113159e-01 -1.7349226772785187e-01</leafValues></_>
        <_>
          <internalNodes>
            0 -1 221 5.3578888764604926e-04</internalNodes>
          <leafValues>
            8.7166838347911835e-02 -8.1052690744400024e-01</leafValues></_>
        <_>
          <internalNodes>
            0 -1 200 -6.9225387414917350e-04</internalNodes>
          <leafValues>
            2.6523384451866150e-01 -2.5005194544792175e-01</leafValues></_>
        <_>
          <internalNodes>
            0 -1 51 4.6755027142353356e-05</internalNodes>
          <leafValues>
            -2.7266794443130493e-01 2.4444198608398438e-01</leafValues></_></weakClassifiers></_>
    <!-- stage 17 -->
    <_>
      <maxWeakCount>13</maxWeakCount>
      <stageThreshold>-1.3607462644577026e+00</stageThreshold>
      <weakClassifiers>
        <_>
          <internalNodes>
            0 -1 181 -5.4133906960487366e-02</internalNodes>
          <leafValues>
            7.3333334922790527e-01 -7.1330469846725464e-01</leafValues></_>
        <_>
          <internalNodes>
            0 -1 32 -1.4301558956503868e-02</internalNodes>
          <leafValues>
            -7.2491288185119629e-01 -5.0827108323574066e-02</leafValues></_>
        <_>
          <internalNodes>
            0 -1 156 -9.5237407367676497e-04</internalNodes>
          <leafValues>
            1.6211968660354614e-01 -4.5734080672264099e-01</leafValues></_>
        <_>
          <internalNodes>
            0 -1 150 -3.4348115324974060e-02</internalNodes>
          <leafValues>
            -9.8273599147796631e-01 8.3172835409641266e-02</leafValues></_>
        <_>
          <internalNodes>
            0 -1 75 1.0101914405822754e-02</internalNodes>
          <leafValues>
            -1.9709786772727966e-01 3.1451836228370667e-01</leafValues></_>
        <_>
          <internalNodes>
            0 -1 63 -8.6098350584506989e-03</internalNodes>
          <leafValues>
            4.2873167991638184e-01 -1.6134302318096161e-01</leafValues></_>
        <_>
          <internalNodes>
            0 -1 73 -9.7448844462633133e-03</internalNodes>
          <leafValues>
            4.2518392205238342e-01 -1.4978961646556854e-01</leafValues></_>
        <_>
          <internalNodes>
            0 -1 106 9.8548317328095436e-03</internalNodes>
          <leafValues>
            -4.9045616388320923e-01 1.2751759588718414e-01</leafValues></_>
        <_>
          <internalNodes>
            0 -1 114 -3.0268293339759111e-03</internalNodes>
          <leafValues>
            5.5902665853500366e-01 -1.1213348805904388e-01</leafValues></_>
        <_>
          <internalNodes>
            0 -1 80 -5.7505015283823013e-03</internalNodes>
          <leafValues>
            1.6455724835395813e-01 -4.2947766184806824e-01</leafValues></_>
        <_>
          <internalNodes>
            0 -1 209 -6.3004530966281891e-04</internalNodes>
          <leafValues>
            -7.8431129455566406e-01 7.5647398829460144e-02</leafValues></_>
        <_>
          <internalNodes>
            0 -1 17 3.2958807423710823e-04</internalNodes>
          <leafValues>
            1.2229023873806000e-01 -4.6502155065536499e-01</leafValues></_>
        <_>
          <internalNodes>
            0 -1 138 -6.6209570504724979e-03</internalNodes>
          <leafValues>
            -6.4502501487731934e-01 8.9436039328575134e-02</leafValues></_></weakClassifiers></_>
    <!-- stage 18 -->
    <_>
      <maxWeakCount>20</maxWeakCount>
      <stageThreshold>-1.5214076042175293e+00</stageThreshold>
      <weakClassifiers>
        <_>
          <internalNodes>
            0 -1 123 8.2288663834333420e-03</internalNodes>
          <leafValues>
            -7.3357015848159790e-01 1.1111111193895340e-01</leafValues></_>
        <_>
          <internalNodes>
            0 -1 175 -2.8698786627501249e-04</internalNodes>
          <leafValues>
            2.0707517862319946e-02 -4.6121257543563843e-01</leafValues></_>
        <_>
          <internalNodes>
            0 -1 76 1.4615757390856743e-02</internalNodes>
          <leafValues>
            -2.1103541553020477e-01 3.1095477938652039e-01</leafValues></_>
        <_>
          <internalNodes>
            0 -1 163 -4.5483218855224550e-04</internalNodes>
          <leafValues>
            3.6291456222534180e-01 -1.6293920576572418e-01</leafValues></_>
        <_>
          <internalNodes>
            0 -1 186 -1.8819525837898254e-02</internalNodes>
          <leafValues>
            2.4637137353420258e-01 -2.6664903759956360e-01</leafValues></_>
        <_>
          <internalNodes>
            0 -1 132 1.0682532563805580e-02</internalNodes>
          <leafValues>
            -1.2136275321245193e-01 4.1346117854118347e-01</leafValues></_>
        <_>
          <internalNodes>
            0 -1 103 9.7563676536083221e-03</internalNodes>
          <leafValues>
            -1.6072762012481689e-01 3.9729139208793640e-01</leafValues></_>
        <_>
          <internalNodes>
            0 -1 107 -2.5028718635439873e-02</internalNodes>
          <leafValues>
            -6.0545438528060913e-01 1.1635412275791168e-01</leafValues></_>
        <_>
          <internalNodes>
            0 -1 14 6.0480482876300812e-02</internalNodes>
          <leafValues>
            9.3070298433303833e-02 -7.2007203102111816e-01</leafValues></_>
        <_>
          <internalNodes>
            0 -1 212 -1.4143617590889335e-04</internalNodes>
          <leafValues>
            -3.8785219192504883e-01 1.3961136341094971e-01</leafValues></_>
        <_>
          <internalNodes>
            0 -1 43 -3.6526300013065338e-02</internalNodes>
          <leafValues>
            3.3321842551231384e-01 -1.6819570958614349e-01</leafValues></_>
        <_>
          <internalNodes>
            0 -1 185 -2.8709520120173693e-04</internalNodes>
          <leafValues>
            2.2798451781272888e-01 -2.6346671581268311e-01</leafValues></_>
        <_>
          <internalNodes>
            0 -1 174 -8.7932386668398976e-04</internalNodes>
          <leafValues>
            2.2977633774280548e-01 -2.7532958984375000e-01</leafValues></_>
        <_>
          <internalNodes>
            0 -1 86 -9.6284689789172262e-05</internalNodes>
          <leafValues>
            -3.4503856301307678e-01 1.9167605042457581e-01</leafValues></_>
        <_>
          <internalNodes>
            0 -1 59 -1.9949060515500605e-05</internalNodes>
          <leafValues>
            2.0390334725379944e-01 -2.8833317756652832e-01</leafValues></_>
        <_>
          <internalNodes>
            0 -1 50 2.1252574515528977e-04</internalNodes>
          <leafValues>
            1.6562484204769135e-01 -4.1036066412925720e-01</leafValues></_>
        <_>
          <internalNodes>
            0 -1 179 2.6314675807952881e-02</internalNodes>
          <leafValues>
            -9.9157944321632385e-02 7.6103794574737549e-01</leafValues></_>
        <_>
          <internalNodes>
            0 -1 71 -1.1010838672518730e-02</internalNodes>
          <leafValues>
            3.9862450957298279e-01 -1.4877223968505859e-01</leafValues></_>
        <_>
          <internalNodes>
            0 -1 23 -1.4330160804092884e-02</internalNodes>
          <leafValues>
            7.0353895425796509e-01 -9.1955989599227905e-02</leafValues></_>
        <_>
          <internalNodes>
            0 -1 30 4.7678961418569088e-03</internalNodes>
          <leafValues>
            -2.3887082934379578e-01 2.4879866838455200e-01</leafValues></_></weakClassifiers></_>
    <!-- stage 19 -->
    <_>
      <maxWeakCount>16</maxWeakCount>
      <stageThreshold>-1.4762293100357056e+00</stageThreshold>
      <weakClassifiers>
        <_>
          <internalNodes>
            0 -1 210 1.3704480603337288e-02</internalNodes>
          <leafValues>
            -7.4927675724029541e-01 -3.0069929361343384e-01</leafValues></_>
        <_>
          <internalNodes>
            0 -1 172 -1.3214454520493746e-04</internalNodes>
          <leafValues>
            5.6254096329212189e-02 -4.0922531485557556e-01</leafValues></_>
        <_>
          <internalNodes>
            0 -1 213 2.7634738944470882e-03</internalNodes>
          <leafValues>
            5.0393532961606979e-02 -1.</leafValues></_>
        <_>
          <internalNodes>
            0 -1 93 -1.2240867130458355e-02</internalNodes>
          <leafValues>
            -1. 5.7868897914886475e-02</leafValues></_>
        <_>
          <internalNodes>
            0 -1 42 -1.3635159120894969e-04</internalNodes>
          <leafValues>
            1.7522652447223663e-01 -3.3059197664260864e-01</leafValues></_>
        <_>
          <internalNodes>
            0 -1 0 1.2792494148015976e-02</internalNodes>
          <leafValues>
            -3.5706499218940735e-01 1.7936010658740997e-01</leafValues></_>
        <_>
          <internalNodes>
            0 -1 203 7.9502075095660985e-05</internalNodes>
          <leafValues>
            -2.1977829933166504e-01 2.3540948331356049e-01</leafValues></_>
        <_>
          <internalNodes>
            0 -1 158 -2.9759365133941174e-04</internalNodes>
          <leafValues>
            2.1301215887069702e-01 -2.4676674604415894e-01</leafValues></_>
        <_>
          <internalNodes>
            0 -1 157 -2.3415253963321447e-03</internalNodes>
          <leafValues>
            2.0865073800086975e-01 -2.6867476105690002e-01</leafValues></_>
        <_>
          <internalNodes>
            0 -1 171 8.3561893552541733e-03</internalNodes>
          <leafValues>
            -1.2652763724327087e-01 4.4572326540946960e-01</leafValues></_>
        <_>
          <internalNodes>
            0 -1 191 1.1154752224683762e-02</internalNodes>
          <leafValues>
            -1.7424884438514709e-01 3.1222009658813477e-01</leafValues></_>
        <_>
          <internalNodes>
            0 -1 211 2.3463202640414238e-02</internalNodes>
          <leafValues>
            -7.9191423952579498e-02 7.2021198272705078e-01</leafValues></_>
        <_>
          <internalNodes>
            0 -1 231 3.8407175452448428e-05</internalNodes>
          <leafValues>
            -2.6296734809875488e-01 2.2267498075962067e-01</leafValues></_>
        <_>
          <internalNodes>
            0 -1 144 -5.0956243649125099e-04</internalNodes>
          <leafValues>
            3.1504368782043457e-01 -1.8847049772739410e-01</leafValues></_>
        <_>
          <internalNodes>
            0 -1 195 2.7759102522395551e-04</internalNodes>
          <leafValues>
            -2.6531928777694702e-01 2.2128951549530029e-01</leafValues></_>
        <_>
          <internalNodes>
            0 -1 65 2.7322996174916625e-04</internalNodes>
          <leafValues>
            1.2873977422714233e-01 -4.7264531254768372e-01</leafValues></_></weakClassifiers></_></stages>
  <features>
    <_>
      <rects>
        <_>
          0 0 1 24 -1.</_>
        <_>
          0 12 1 12 2.</_></rects>
      <tilted>0</tilted></_>
    <_>
      <rects>
        <_>
          0 2 3 22 -1.</_>
        <_>
          0 13 3 11 2.</_></rects>
      <tilted>0</tilted></_>
    <_>
      <rects>
        <_>
          0 2 15 10 -1.</_>
        <_>
          5 2 5 10 3.</_></rects>
      <tilted>0</tilted></_>
    <_>
      <rects>
        <_>
          0 2 24 10 -1.</_>
        <_>
          8 2 8 10 3.</_></rects>
      <tilted>0</tilted></_>
    <_>
      <rects>
        <_>
          0 2 22 22 -1.</_>
        <_>
          0 2 11 11 2.</_>
        <_>
          11 13 11 11 2.</_></rects>
      <tilted>0</tilted></_>
    <_>
      <rects>
        <_>
          0 2 14 3 -1.</_>
        <_>
          0 3 14 1 3.</_></rects>
      <tilted>0</tilted></_>
    <_>
      <rects>
        <_>
          0 2 24 22 -1.</_>
        <_>
          0 13 24 11 2.</_></rects>
      <tilted>0</tilted></_>
    <_>
      <rects>
        <_>
          0 3 2 1 -1.</_>
        <_>
          1 3 1 1 2.</_></rects>
      <tilted>0</tilted></_>
    <_>
      <rects>
        <_>
          0 4 2 2 -1.</_>
        <_>
          1 4 1 2 2.</_></rects>
      <tilted>0</tilted></_>
    <_>
      <rects>
        <_>
          0 4 5 20 -1.</_>
        <_>
          0 14 5 10 2.</_></rects>
      <tilted>0</tilted></_>
    <_>
      <rects>
        <_>
          0 4 6 20 -1.</_>
        <_>
          0 14 6 10 2.</_></rects>
      <tilted>0</tilted></_>
    <_>
      <rects>
        <_>
          0 5 1 6 -1.</_>
        <_>
          0 8 1 3 2.</_></rects>
      <tilted>0</tilted></_>
    <_>
      <rects>
        <_>
          0 6 12 2 -1.</_>
        <_>
          4 6 4 2 3.</_></rects>
      <tilted>0</tilted></_>
    <_>
      <rects>
        <_>
          0 6 8 18 -1.</_>
        <_>
          0 12 8 6 3.</_></rects>
      <tilted>0</tilted></_>
    <_>
      <rects>
        <_>
          0 8 16 16 -1.</_>
        <_>
          8 8 8 16 2.</_></rects>
      <tilted>0</tilted></_>
    <_>
      <rects>
        <_>
          0 9 10 3 -1.</_>
        <_>
          0 10 10 1 3.</_></rects>
      <tilted>0</tilted></_>
    <_>
      <rects>
        <_>
          0 10 24 8 -1.</_>
        <_>
          8 10 8 8 3.</_></rects>
      <tilted>0</tilted></_>
    <_>
      <rects>
        <_>
          0 15 3 2 -1.</_>
        <_>
          1 15 1 2 3.</_></rects>
      <tilted>0</tilted></_>
    <_>
      <rects>
        <_>
          0 15 2 4 -1.</_>
        <_>
          1 15 1 4 2.</_></rects>
      <tilted>0</tilted></_>
    <_>
      <rects>
        <_>
          0 15 3 4 -1.</_>
        <_>
          1 15 1 4 3.</_></rects>
      <tilted>0</tilted></_>
    <_>
      <rects>
        <_>
          0 15 8 3 -1.</_>
        <_>
          0 16 8 1 3.</_></rects>
      <tilted>0</tilted></_>
    <_>
      <rects>
        <_>
          0 16 2 1 -1.</_>
        <_>
          1 16 1 1 2.</_></rects>
      <tilted>0</tilted></_>
    <_>
      <rects>
        <_>
          0 16 2 2 -1.</_>
        <_>
          1 16 1 2 2.</_></rects>
      <tilted>0</tilted></_>
    <_>
      <rects>
        <_>
          0 16 9 3 -1.</_>
        <_>
          0 17 9 1 3.</_></rects>
      <tilted>0</tilted></_>
    <_>
      <rects>
        <_>
          0 17 7 6 -1.</_>
        <_>
          0 19 7 2 3.</_></rects>
      <tilted>0</tilted></_>
    <_>
      <rects>
        <_>
          0 20 23 4 -1.</_>
        <_>
          0 22 23 2 2.</_></rects>
      <tilted>0</tilted></_>
    <_>
      <rects>
        <_>
          0 21 3 2 -1.</_>
        <_>
          1 21 1 2 3.</_></rects>
      <tilted>0</tilted></_>
    <_>
      <rects>
        <_>
          0 21 12 1 -1.</_>
        <_>
          4 21 4 1 3.</_></rects>
      <tilted>0</tilted></_>
    <_>
      <rects>
        <_>
          0 21 20 3 -1.</_>
        <_>
          10 21 10 3 2.</_></rects>
      <tilted>0</tilted></_>
    <_>
      <rects>
        <_>
          0 22 2 2 -1.</_>
        <_>
          1 22 1 2 2.</_></rects>
      <tilted>0</tilted></_>
    <_>
      <rects>
        <_>
          0 22 18 2 -1.</_>
        <_>
          0 23 18 1 2.</_></rects>
      <tilted>0</tilted></_>
    <_>
      <rects>
        <_>
          0 22 20 2 -1.</_>
        <_>
          0 23 20 1 2.</_></rects>
      <tilted>0</tilted></_>
    <_>
      <rects>
        <_>
          1 0 21 2 -1.</_>
        <_>
          8 0 7 2 3.</_></rects>
      <tilted>0</tilted></_>
    <_>
      <rects>
        <_>
          1 2 21 9 -1.</_>
        <_>
          8 2 7 9 3.</_></rects>
      <tilted>0</tilted></_>
    <_>
      <rects>
        <_>
          1 4 6 12 -1.</_>
        <_>
          1 8 6 4 3.</_></rects>
      <tilted>0</tilted></_>
    <_>
      <rects>
        <_>
          1 5 23 3 -1.</_>
        <_>
          1 6 23 1 3.</_></rects>
      <tilted>0</tilted></_>
    <_>
      <rects>
        <_>
          1 5 23 6 -1.</_>
        <_>
          1 7 23 2 3.</_></rects>
      <tilted>0</tilted></_>
    <_>
      <rects>
        <_>
          1 13 3 3 -1.</_>
        <_>
          1 14 3 1 3.</_></rects>
      <tilted>0</tilted></_>
    <_>
      <rects>
        <_>
          1 18 3 2 -1.</_>
        <_>
          2 18 1 2 3.</_></rects>
      <tilted>0</tilted></_>
    <_>
      <rects>
        <_>
          1 18 20 6 -1.</_>
        <_>
          1 21 20 3 2.</_></rects>
      <tilted>0</tilted></_>
    <_>
      <rects>
        <_>
          1 18 23 6 -1.</_>
        <_>
          1 21 23 3 2.</_></rects>
      <tilted>0</tilted></_>
    <_>
      <rects>
        <_>
          1 21 3 2 -1.</_>
        <_>
          2 21 1 2 3.</_></rects>
      <tilted>0</tilted></_>
    <_>
      <rects>
        <_>
          2 0 8 6 -1.</_>
        <_>
          2 0 4 3 2.</_>
        <_>
          6 3 4 3 2.</_></rects>
      <tilted>0</tilted></_>
    <_>
      <rects>
        <_>
          2 2 3 15 -1.</_>
        <_>
          2 7 3 5 3.</_></rects>
      <tilted>0</tilted></_>
    <_>
      <rects>
        <_>
          2 3 21 14 -1.</_>
        <_>
          9 3 7 14 3.</_></rects>
      <tilted>0</tilted></_>
    <_>
      <rects>
        <_>
          2 3 12 3 -1.</_>
        <_>
          2 4 12 1 3.</_></rects>
      <tilted>0</tilted></_>
    <_>
      <rects>
        <_>
          2 5 10 2 -1.</_>
        <_>
          2 6 10 1 2.</_></rects>
      <tilted>0</tilted></_>
    <_>
      <rects>
        <_>
          2 5 14 18 -1.</_>
        <_>
          2 11 14 6 3.</_></rects>
      <tilted>0</tilted></_>
    <_>
      <rects>
        <_>
          2 12 17 12 -1.</_>
        <_>
          2 18 17 6 2.</_></rects>
      <tilted>0</tilted></_>
    <_>
      <rects>
        <_>
          2 15 5 9 -1.</_>
        <_>
          2 18 5 3 3.</_></rects>
      <tilted>0</tilted></_>
    <_>
      <rects>
        <_>
          2 17 3 1 -1.</_>
        <_>
          3 17 1 1 3.</_></rects>
      <tilted>0</tilted></_>
    <_>
      <rects>
        <_>
          2 17 3 6 -1.</_>
        <_>
          3 17 1 6 3.</_></rects>
      <tilted>0</tilted></_>
    <_>
      <rects>
        <_>
          2 17 9 6 -1.</_>
        <_>
          5 17 3 6 3.</_></rects>
      <tilted>0</tilted></_>
    <_>
      <rects>
        <_>
          2 17 12 4 -1.</_>
        <_>
          6 17 4 4 3.</_></rects>
      <tilted>0</tilted></_>
    <_>
      <rects>
        <_>
          2 22 16 2 -1.</_>
        <_>
          2 23 16 1 2.</_></rects>
      <tilted>0</tilted></_>
    <_>
      <rects>
        <_>
          2 23 3 1 -1.</_>
        <_>
          3 23 1 1 3.</_></rects>
      <tilted>0</tilted></_>
    <_>
      <rects>
        <_>
          3 0 8 1 -1.</_>
        <_>
          7 0 4 1 2.</_></rects>
      <tilted>0</tilted></_>
    <_>
      <rects>
        <_>
          3 1 3 1 -1.</_>
        <_>
          4 1 1 1 3.</_></rects>
      <tilted>0</tilted></_>
    <_>
      <rects>
        <_>
          3 1 4 2 -1.</_>
        <_>
          3 1 2 1 2.</_>
        <_>
          5 2 2 1 2.</_></rects>
      <tilted>0</tilted></_>
    <_>
      <rects>
        <_>
          3 6 2 1 -1.</_>
        <_>
          4 6 1 1 2.</_></rects>
      <tilted>0</tilted></_>
    <_>
      <rects>
        <_>
          3 11 2 2 -1.</_>
        <_>
          4 11 1 2 2.</_></rects>
      <tilted>0</tilted></_>
    <_>
      <rects>
        <_>
          3 11 10 12 -1.</_>
        <_>
          8 11 5 12 2.</_></rects>
      <tilted>0</tilted></_>
    <_>
      <rects>
        <_>
          3 13 15 8 -1.</_>
        <_>
          8 13 5 8 3.</_></rects>
      <tilted>0</tilted></_>
    <_>
      <rects>
        <_>
          3 21 12 1 -1.</_>
        <_>
          7 21 4 1 3.</_></rects>
      <tilted>0</tilted></_>
    <_>
      <rects>
        <_>
          4 1 16 12 -1.</_>
        <_>
          4 5 16 4 3.</_></rects>
      <tilted>0</tilted></_>
    <_>
      <rects>
        <_>
          4 2 2 1 -1.</_>
        <_>
          5 2 1 1 2.</_></rects>
      <tilted>0</tilted></_>
    <_>
      <rects>
        <_>
          4 3 3 3 -1.</_>
        <_>
          4 4 3 1 3.</_></rects>
      <tilted>0</tilted></_>
    <_>
      <rects>
        <_>
          4 4 20 16 -1.</_>
        <_>
          4 12 20 8 2.</_></rects>
      <tilted>0</tilted></_>
    <_>
      <rects>
        <_>
          4 5 3 2 -1.</_>
        <_>
          4 6 3 1 2.</_></rects>
      <tilted>0</tilted></_>
    <_>
      <rects>
        <_>
          4 5 6 12 -1.</_>
        <_>
          4 9 6 4 3.</_></rects>
      <tilted>0</tilted></_>
    <_>
      <rects>
        <_>
          4 5 14 4 -1.</_>
        <_>
          11 5 7 4 2.</_></rects>
      <tilted>0</tilted></_>
    <_>
      <rects>
        <_>
          4 14 9 2 -1.</_>
        <_>
          7 14 3 2 3.</_></rects>
      <tilted>0</tilted></_>
    <_>
      <rects>
        <_>
          4 14 6 4 -1.</_>
        <_>
          4 14 3 2 2.</_>
        <_>
          7 16 3 2 2.</_></rects>
      <tilted>0</tilted></_>
    <_>
      <rects>
        <_>
          4 15 19 3 -1.</_>
        <_>
          4 16 19 1 3.</_></rects>
      <tilted>0</tilted></_>
    <_>
      <rects>
        <_>
          4 16 12 8 -1.</_>
        <_>
          4 20 12 4 2.</_></rects>
      <tilted>0</tilted></_>
    <_>
      <rects>
        <_>
          4 17 9 6 -1.</_>
        <_>
          7 17 3 6 3.</_></rects>
      <tilted>0</tilted></_>
    <_>
      <rects>
        <_>
          4 18 9 6 -1.</_>
        <_>
          7 18 3 6 3.</_></rects>
      <tilted>0</tilted></_>
    <_>
      <rects>
        <_>
          4 19 12 3 -1.</_>
        <_>
          8 19 4 3 3.</_></rects>
      <tilted>0</tilted></_>
    <_>
      <rects>
        <_>
          4 21 20 3 -1.</_>
        <_>
          4 22 20 1 3.</_></rects>
      <tilted>0</tilted></_>
    <_>
      <rects>
        <_>
          5 0 18 6 -1.</_>
        <_>
          14 0 9 6 2.</_></rects>
      <tilted>0</tilted></_>
    <_>
      <rects>
        <_>
          5 2 14 15 -1.</_>
        <_>
          5 7 14 5 3.</_></rects>
      <tilted>0</tilted></_>
    <_>
      <rects>
        <_>
          5 3 9 6 -1.</_>
        <_>
          8 3 3 6 3.</_></rects>
      <tilted>0</tilted></_>
    <_>
      <rects>
        <_>
          5 4 2 6 -1.</_>
        <_>
          5 6 2 2 3.</_></rects>
      <tilted>0</tilted></_>
    <_>
      <rects>
        <_>
          5 6 4 10 -1.</_>
        <_>
          5 6 2 5 2.</_>
        <_>
          7 11 2 5 2.</_></rects>
      <tilted>0</tilted></_>
    <_>
      <rects>
        <_>
          5 16 9 7 -1.</_>
        <_>
          8 16 3 7 3.</_></rects>
      <tilted>0</tilted></_>
    <_>
      <rects>
        <_>
          5 16 6 6 -1.</_>
        <_>
          5 19 6 3 2.</_></rects>
      <tilted>0</tilted></_>
    <_>
      <rects>
        <_>
          5 21 2 3 -1.</_>
        <_>
          6 21 1 3 2.</_></rects>
      <tilted>0</tilted></_>
    <_>
      <rects>
        <_>
          5 22 10 2 -1.</_>
        <_>
          5 22 5 1 2.</_>
        <_>
          10 23 5 1 2.</_></rects>
      <tilted>0</tilted></_>
    <_>
      <rects>
        <_>
          6 0 6 12 -1.</_>
        <_>
          6 6 6 6 2.</_></rects>
      <tilted>0</tilted></_>
    <_>
      <rects>
        <_>
          6 0 14 2 -1.</_>
        <_>
          13 0 7 2 2.</_></rects>
      <tilted>0</tilted></_>
    <_>
      <rects>
        <_>
          6 1 12 3 -1.</_>
        <_>
          6 2 12 1 3.</_></rects>
      <tilted>0</tilted></_>
    <_>
      <rects>
        <_>
          6 5 6 8 -1.</_>
        <_>
          6 5 3 4 2.</_>
        <_>
          9 9 3 4 2.</_></rects>
      <tilted>0</tilted></_>
    <_>
      <rects>
        <_>
          6 6 18 18 -1.</_>
        <_>
          6 15 18 9 2.</_></rects>
      <tilted>0</tilted></_>
    <_>
      <rects>
        <_>
          6 7 3 11 -1.</_>
        <_>
          7 7 1 11 3.</_></rects>
      <tilted>0</tilted></_>
    <_>
      <rects>
        <_>
          6 8 15 14 -1.</_>
        <_>
          6 15 15 7 2.</_></rects>
      <tilted>0</tilted></_>
    <_>
      <rects>
        <_>
          7 0 4 6 -1.</_>
        <_>
          7 3 4 3 2.</_></rects>
      <tilted>0</tilted></_>
    <_>
      <rects>
        <_>
          7 4 9 12 -1.</_>
        <_>
          7 8 9 4 3.</_></rects>
      <tilted>0</tilted></_>
    <_>
      <rects>
        <_>
          7 5 4 6 -1.</_>
        <_>
          7 5 2 3 2.</_>
        <_>
          9 8 2 3 2.</_></rects>
      <tilted>0</tilted></_>
    <_>
      <rects>
        <_>
          7 6 12 11 -1.</_>
        <_>
          11 6 4 11 3.</_></rects>
      <tilted>0</tilted></_>
    <_>
      <rects>
        <_>
          7 6 14 6 -1.</_>
        <_>
          7 6 7 3 2.</_>
        <_>
          14 9 7 3 2.</_></rects>
      <tilted>0</tilted></_>
    <_>
      <rects>
        <_>
          7 9 2 2 -1.</_>
        <_>
          7 9 1 1 2.</_>
        <_>
          8 10 1 1 2.</_></rects>
      <tilted>0</tilted></_>
    <_>
      <rects>
        <_>
          7 10 12 14 -1.</_>
        <_>
          7 17 12 7 2.</_></rects>
      <tilted>0</tilted></_>
    <_>
      <rects>
        <_>
          7 12 4 10 -1.</_>
        <_>
          7 12 2 5 2.</_>
        <_>
          9 17 2 5 2.</_></rects>
      <tilted>0</tilted></_>
    <_>
      <rects>
        <_>
          7 12 6 7 -1.</_>
        <_>
          9 12 2 7 3.</_></rects>
      <tilted>0</tilted></_>
    <_>
      <rects>
        <_>
          7 15 4 6 -1.</_>
        <_>
          7 15 2 3 2.</_>
        <_>
          9 18 2 3 2.</_></rects>
      <tilted>0</tilted></_>
    <_>
      <rects>
        <_>
          7 16 12 4 -1.</_>
        <_>
          11 16 4 4 3.</_></rects>
      <tilted>0</tilted></_>
    <_>
      <rects>
        <_>
          7 18 16 6 -1.</_>
        <_>
          7 21 16 3 2.</_></rects>
      <tilted>0</tilted></_>
    <_>
      <rects>
        <_>
          8 0 2 12 -1.</_>
        <_>
          8 6 2 6 2.</_></rects>
      <tilted>0</tilted></_>
    <_>
      <rects>
        <_>
          8 0 3 10 -1.</_>
        <_>
          8 5 3 5 2.</_></rects>
      <tilted>0</tilted></_>
    <_>
      <rects>
        <_>
          8 0 5 3 -1.</_>
        <_>
          8 1 5 1 3.</_></rects>
      <tilted>0</tilted></_>
    <_>
      <rects>
        <_>
          8 0 7 16 -1.</_>
        <_>
          8 8 7 8 2.</_></rects>
      <tilted>0</tilted></_>
    <_>
      <rects>
        <_>
          8 1 8 2 -1.</_>
        <_>
          8 1 4 1 2.</_>
        <_>
          12 2 4 1 2.</_></rects>
      <tilted>0</tilted></_>
    <_>
      <rects>
        <_>
          8 1 9 12 -1.</_>
        <_>
          8 5 9 4 3.</_></rects>
      <tilted>0</tilted></_>
    <_>
      <rects>
        <_>
          8 2 8 2 -1.</_>
        <_>
          8 2 4 1 2.</_>
        <_>
          12 3 4 1 2.</_></rects>
      <tilted>0</tilted></_>
    <_>
      <rects>
        <_>
          8 3 6 2 -1.</_>
        <_>
          8 3 3 1 2.</_>
        <_>
          11 4 3 1 2.</_></rects>
      <tilted>0</tilted></_>
    <_>
      <rects>
        <_>
          8 5 12 8 -1.</_>
        <_>
          14 5 6 8 2.</_></rects>
      <tilted>0</tilted></_>
    <_>
      <rects>
        <_>
          8 6 2 6 -1.</_>
        <_>
          8 9 2 3 2.</_></rects>
      <tilted>0</tilted></_>
    <_>
      <rects>
        <_>
          8 7 2 4 -1.</_>
        <_>
          8 7 1 2 2.</_>
        <_>
          9 9 1 2 2.</_></rects>
      <tilted>0</tilted></_>
    <_>
      <rects>
        <_>
          8 7 2 3 -1.</_>
        <_>
          8 8 2 1 3.</_></rects>
      <tilted>0</tilted></_>
    <_>
      <rects>
        <_>
          8 10 2 3 -1.</_>
        <_>
          8 11 2 1 3.</_></rects>
      <tilted>0</tilted></_>
    <_>
      <rects>
        <_>
          8 10 16 5 -1.</_>
        <_>
          16 10 8 5 2.</_></rects>
      <tilted>0</tilted></_>
    <_>
      <rects>
        <_>
          8 11 1 4 -1.</_>
        <_>
          8 13 1 2 2.</_></rects>
      <tilted>0</tilted></_>
    <_>
      <rects>
        <_>
          8 12 10 12 -1.</_>
        <_>
          8 18 10 6 2.</_></rects>
      <tilted>0</tilted></_>
    <_>
      <rects>
        <_>
          8 15 4 4 -1.</_>
        <_>
          8 15 2 2 2.</_>
        <_>
          10 17 2 2 2.</_></rects>
      <tilted>0</tilted></_>
    <_>
      <rects>
        <_>
          8 19 6 1 -1.</_>
        <_>
          10 19 2 1 3.</_></rects>
      <tilted>0</tilted></_>
    <_>
      <rects>
        <_>
          9 0 1 14 -1.</_>
        <_>
          9 7 1 7 2.</_></rects>
      <tilted>0</tilted></_>
    <_>
      <rects>
        <_>
          9 0 5 14 -1.</_>
        <_>
          9 7 5 7 2.</_></rects>
      <tilted>0</tilted></_>
    <_>
      <rects>
        <_>
          9 2 4 3 -1.</_>
        <_>
          9 3 4 1 3.</_></rects>
      <tilted>0</tilted></_>
    <_>
      <rects>
        <_>
          9 2 12 11 -1.</_>
        <_>
          13 2 4 11 3.</_></rects>
      <tilted>0</tilted></_>
    <_>
      <rects>
        <_>
          9 3 4 2 -1.</_>
        <_>
          9 3 2 1 2.</_>
        <_>
          11 4 2 1 2.</_></rects>
      <tilted>0</tilted></_>
    <_>
      <rects>
        <_>
          9 4 2 4 -1.</_>
        <_>
          9 4 1 2 2.</_>
        <_>
          10 6 1 2 2.</_></rects>
      <tilted>0</tilted></_>
    <_>
      <rects>
        <_>
          9 5 2 2 -1.</_>
        <_>
          9 5 1 1 2.</_>
        <_>
          10 6 1 1 2.</_></rects>
      <tilted>0</tilted></_>
    <_>
      <rects>
        <_>
          9 7 4 17 -1.</_>
        <_>
          11 7 2 17 2.</_></rects>
      <tilted>0</tilted></_>
    <_>
      <rects>
        <_>
          9 7 8 12 -1.</_>
        <_>
          9 11 8 4 3.</_></rects>
      <tilted>0</tilted></_>
    <_>
      <rects>
        <_>
          9 12 12 6 -1.</_>
        <_>
          13 12 4 6 3.</_></rects>
      <tilted>0</tilted></_>
    <_>
      <rects>
        <_>
          9 15 1 2 -1.</_>
        <_>
          9 16 1 1 2.</_></rects>
      <tilted>0</tilted></_>
    <_>
      <rects>
        <_>
          9 16 9 3 -1.</_>
        <_>
          12 16 3 3 3.</_></rects>
      <tilted>0</tilted></_>
    <_>
      <rects>
        <_>
          9 16 9 8 -1.</_>
        <_>
          12 16 3 8 3.</_></rects>
      <tilted>0</tilted></_>
    <_>
      <rects>
        <_>
          10 0 10 1 -1.</_>
        <_>
          15 0 5 1 2.</_></rects>
      <tilted>0</tilted></_>
    <_>
      <rects>
        <_>
          10 1 2 3 -1.</_>
        <_>
          10 2 2 1 3.</_></rects>
      <tilted>0</tilted></_>
    <_>
      <rects>
        <_>
          10 2 2 3 -1.</_>
        <_>
          10 3 2 1 3.</_></rects>
      <tilted>0</tilted></_>
    <_>
      <rects>
        <_>
          10 3 4 14 -1.</_>
        <_>
          10 3 2 7 2.</_>
        <_>
          12 10 2 7 2.</_></rects>
      <tilted>0</tilted></_>
    <_>
      <rects>
        <_>
          10 4 3 2 -1.</_>
        <_>
          11 4 1 2 3.</_></rects>
      <tilted>0</tilted></_>
    <_>
      <rects>
        <_>
          10 5 4 10 -1.</_>
        <_>
          10 10 4 5 2.</_></rects>
      <tilted>0</tilted></_>
    <_>
      <rects>
        <_>
          10 7 4 2 -1.</_>
        <_>
          10 7 2 1 2.</_>
        <_>
          12 8 2 1 2.</_></rects>
      <tilted>0</tilted></_>
    <_>
      <rects>
        <_>
          10 9 3 6 -1.</_>
        <_>
          10 11 3 2 3.</_></rects>
      <tilted>0</tilted></_>
    <_>
      <rects>
        <_>
          10 10 8 14 -1.</_>
        <_>
          10 17 8 7 2.</_></rects>
      <tilted>0</tilted></_>
    <_>
      <rects>
        <_>
          10 12 9 12 -1.</_>
        <_>
          10 18 9 6 2.</_></rects>
      <tilted>0</tilted></_>
    <_>
      <rects>
        <_>
          10 15 6 6 -1.</_>
        <_>
          12 15 2 6 3.</_></rects>
      <tilted>0</tilted></_>
    <_>
      <rects>
        <_>
          10 15 14 7 -1.</_>
        <_>
          17 15 7 7 2.</_></rects>
      <tilted>0</tilted></_>
    <_>
      <rects>
        <_>
          11 1 9 6 -1.</_>
        <_>
          11 3 9 2 3.</_></rects>
      <tilted>0</tilted></_>
    <_>
      <rects>
        <_>
          11 4 2 2 -1.</_>
        <_>
          11 4 1 1 2.</_>
        <_>
          12 5 1 1 2.</_></rects>
      <tilted>0</tilted></_>
    <_>
      <rects>
        <_>
          11 4 2 6 -1.</_>
        <_>
          11 4 1 3 2.</_>
        <_>
          12 7 1 3 2.</_></rects>
      <tilted>0</tilted></_>
    <_>
      <rects>
        <_>
          11 4 11 20 -1.</_>
        <_>
          11 14 11 10 2.</_></rects>
      <tilted>0</tilted></_>
    <_>
      <rects>
        <_>
          11 6 13 15 -1.</_>
        <_>
          11 11 13 5 3.</_></rects>
      <tilted>0</tilted></_>
    <_>
      <rects>
        <_>
          11 7 6 3 -1.</_>
        <_>
          11 8 6 1 3.</_></rects>
      <tilted>0</tilted></_>
    <_>
      <rects>
        <_>
          11 8 2 9 -1.</_>
        <_>
          11 11 2 3 3.</_></rects>
      <tilted>0</tilted></_>
    <_>
      <rects>
        <_>
          11 11 2 9 -1.</_>
        <_>
          11 14 2 3 3.</_></rects>
      <tilted>0</tilted></_>
    <_>
      <rects>
        <_>
          11 12 4 3 -1.</_>
        <_>
          11 13 4 1 3.</_></rects>
      <tilted>0</tilted></_>
    <_>
      <rects>
        <_>
          11 17 9 3 -1.</_>
        <_>
          14 17 3 3 3.</_></rects>
      <tilted>0</tilted></_>
    <_>
      <rects>
        <_>
          12 0 2 4 -1.</_>
        <_>
          12 2 2 2 2.</_></rects>
      <tilted>0</tilted></_>
    <_>
      <rects>
        <_>
          12 1 12 3 -1.</_>
        <_>
          12 2 12 1 3.</_></rects>
      <tilted>0</tilted></_>
    <_>
      <rects>
        <_>
          12 4 8 6 -1.</_>
        <_>
          12 6 8 2 3.</_></rects>
      <tilted>0</tilted></_>
    <_>
      <rects>
        <_>
          12 5 3 1 -1.</_>
        <_>
          13 5 1 1 3.</_></rects>
      <tilted>0</tilted></_>
    <_>
      <rects>
        <_>
          12 5 12 13 -1.</_>
        <_>
          18 5 6 13 2.</_></rects>
      <tilted>0</tilted></_>
    <_>
      <rects>
        <_>
          12 6 6 3 -1.</_>
        <_>
          12 7 6 1 3.</_></rects>
      <tilted>0</tilted></_>
    <_>
      <rects>
        <_>
          12 8 5 6 -1.</_>
        <_>
          12 11 5 3 2.</_></rects>
      <tilted>0</tilted></_>
    <_>
      <rects>
        <_>
          12 8 12 3 -1.</_>
        <_>
          12 9 12 1 3.</_></rects>
      <tilted>0</tilted></_>
    <_>
      <rects>
        <_>
          12 10 4 6 -1.</_>
        <_>
          12 10 2 3 2.</_>
        <_>
          14 13 2 3 2.</_></rects>
      <tilted>0</tilted></_>
    <_>
      <rects>
        <_>
          12 14 1 6 -1.</_>
        <_>
          12 16 1 2 3.</_></rects>
      <tilted>0</tilted></_>
    <_>
      <rects>
        <_>
          12 16 9 3 -1.</_>
        <_>
          15 16 3 3 3.</_></rects>
      <tilted>0</tilted></_>
    <_>
      <rects>
        <_>
          12 17 6 4 -1.</_>
        <_>
          14 17 2 4 3.</_></rects>
      <tilted>0</tilted></_>
    <_>
      <rects>
        <_>
          13 3 1 3 -1.</_>
        <_>
          13 4 1 1 3.</_></rects>
      <tilted>0</tilted></_>
    <_>
      <rects>
        <_>
          13 4 2 2 -1.</_>
        <_>
          13 4 1 1 2.</_>
        <_>
          14 5 1 1 2.</_></rects>
      <tilted>0</tilted></_>
    <_>
      <rects>
        <_>
          13 6 6 3 -1.</_>
        <_>
          15 6 2 3 3.</_></rects>
      <tilted>0</tilted></_>
    <_>
      <rects>
        <_>
          13 9 1 4 -1.</_>
        <_>
          13 11 1 2 2.</_></rects>
      <tilted>0</tilted></_>
    <_>
      <rects>
        <_>
          13 12 7 12 -1.</_>
        <_>
          13 18 7 6 2.</_></rects>
      <tilted>0</tilted></_>
    <_>
      <rects>
        <_>
          13 15 9 4 -1.</_>
        <_>
          16 15 3 4 3.</_></rects>
      <tilted>0</tilted></_>
    <_>
      <rects>
        <_>
          13 15 8 9 -1.</_>
        <_>
          13 18 8 3 3.</_></rects>
      <tilted>0</tilted></_>
    <_>
      <rects>
        <_>
          13 16 6 8 -1.</_>
        <_>
          13 16 3 4 2.</_>
        <_>
          16 20 3 4 2.</_></rects>
      <tilted>0</tilted></_>
    <_>
      <rects>
        <_>
          13 17 9 6 -1.</_>
        <_>
          13 19 9 2 3.</_></rects>
      <tilted>0</tilted></_>
    <_>
      <rects>
        <_>
          13 18 9 3 -1.</_>
        <_>
          16 18 3 3 3.</_></rects>
      <tilted>0</tilted></_>
    <_>
      <rects>
        <_>
          14 0 4 10 -1.</_>
        <_>
          14 5 4 5 2.</_></rects>
      <tilted>0</tilted></_>
    <_>
      <rects>
        <_>
          14 0 8 10 -1.</_>
        <_>
          14 5 8 5 2.</_></rects>
      <tilted>0</tilted></_>
    <_>
      <rects>
        <_>
          14 7 4 10 -1.</_>
        <_>
          14 7 2 5 2.</_>
        <_>
          16 12 2 5 2.</_></rects>
      <tilted>0</tilted></_>
    <_>
      <rects>
        <_>
          14 9 3 2 -1.</_>
        <_>
          14 10 3 1 2.</_></rects>
      <tilted>0</tilted></_>
    <_>
      <rects>
        <_>
          14 10 4 12 -1.</_>
        <_>
          14 14 4 4 3.</_></rects>
      <tilted>0</tilted></_>
    <_>
      <rects>
        <_>
          14 13 8 7 -1.</_>
        <_>
          18 13 4 7 2.</_></rects>
      <tilted>0</tilted></_>
    <_>
      <rects>
        <_>
          14 14 1 2 -1.</_>
        <_>
          14 15 1 1 2.</_></rects>
      <tilted>0</tilted></_>
    <_>
      <rects>
        <_>
          14 15 4 6 -1.</_>
        <_>
          14 15 2 3 2.</_>
        <_>
          16 18 2 3 2.</_></rects>
      <tilted>0</tilted></_>
    <_>
      <rects>
        <_>
          14 16 6 7 -1.</_>
        <_>
          16 16 2 7 3.</_></rects>
      <tilted>0</tilted></_>
    <_>
      <rects>
        <_>
          14 16 9 5 -1.</_>
        <_>
          17 16 3 5 3.</_></rects>
      <tilted>0</tilted></_>
    <_>
      <rects>
        <_>
          14 18 8 6 -1.</_>
        <_>
          14 21 8 3 2.</_></rects>
      <tilted>0</tilted></_>
    <_>
      <rects>
        <_>
          14 19 6 1 -1.</_>
        <_>
          16 19 2 1 3.</_></rects>
      <tilted>0</tilted></_>
    <_>
      <rects>
        <_>
          15 0 2 10 -1.</_>
        <_>
          15 5 2 5 2.</_></rects>
      <tilted>0</tilted></_>
    <_>
      <rects>
        <_>
          15 6 2 4 -1.</_>
        <_>
          16 6 1 4 2.</_></rects>
      <tilted>0</tilted></_>
    <_>
      <rects>
        <_>
          15 11 4 12 -1.</_>
        <_>
          15 15 4 4 3.</_></rects>
      <tilted>0</tilted></_>
    <_>
      <rects>
        <_>
          15 17 4 2 -1.</_>
        <_>
          15 17 2 1 2.</_>
        <_>
          17 18 2 1 2.</_></rects>
      <tilted>0</tilted></_>
    <_>
      <rects>
        <_>
          15 23 8 1 -1.</_>
        <_>
          19 23 4 1 2.</_></rects>
      <tilted>0</tilted></_>
    <_>
      <rects>
        <_>
          16 0 6 1 -1.</_>
        <_>
          19 0 3 1 2.</_></rects>
      <tilted>0</tilted></_>
    <_>
      <rects>
        <_>
          16 4 4 3 -1.</_>
        <_>
          16 5 4 1 3.</_></rects>
      <tilted>0</tilted></_>
    <_>
      <rects>
        <_>
          16 9 1 2 -1.</_>
        <_>
          16 10 1 1 2.</_></rects>
      <tilted>0</tilted></_>
    <_>
      <rects>
        <_>
          17 0 3 8 -1.</_>
        <_>
          17 4 3 4 2.</_></rects>
      <tilted>0</tilted></_>
    <_>
      <rects>
        <_>
          17 8 2 2 -1.</_>
        <_>
          17 8 1 1 2.</_>
        <_>
          18 9 1 1 2.</_></rects>
      <tilted>0</tilted></_>
    <_>
      <rects>
        <_>
          17 9 6 12 -1.</_>
        <_>
          17 13 6 4 3.</_></rects>
      <tilted>0</tilted></_>
    <_>
      <rects>
        <_>
          17 12 6 3 -1.</_>
        <_>
          17 13 6 1 3.</_></rects>
      <tilted>0</tilted></_>
    <_>
      <rects>
        <_>
          17 22 6 1 -1.</_>
        <_>
          19 22 2 1 3.</_></rects>
      <tilted>0</tilted></_>
    <_>
      <rects>
        <_>
          18 22 3 1 -1.</_>
        <_>
          19 22 1 1 3.</_></rects>
      <tilted>0</tilted></_>
    <_>
      <rects>
        <_>
          18 22 3 2 -1.</_>
        <_>
          19 22 1 2 3.</_></rects>
      <tilted>0</tilted></_>
    <_>
      <rects>
        <_>
          19 0 3 1 -1.</_>
        <_>
          20 0 1 1 3.</_></rects>
      <tilted>0</tilted></_>
    <_>
      <rects>
        <_>
          19 5 2 8 -1.</_>
        <_>
          19 9 2 4 2.</_></rects>
      <tilted>0</tilted></_>
    <_>
      <rects>
        <_>
          20 17 4 7 -1.</_>
        <_>
          22 17 2 7 2.</_></rects>
      <tilted>0</tilted></_>
    <_>
      <rects>
        <_>
          20 23 3 1 -1.</_>
        <_>
          21 23 1 1 3.</_></rects>
      <tilted>0</tilted></_>
    <_>
      <rects>
        <_>
          21 0 1 4 -1.</_>
        <_>
          21 2 1 2 2.</_></rects>
      <tilted>0</tilted></_>
    <_>
      <rects>
        <_>
          21 0 3 10 -1.</_>
        <_>
          22 0 1 10 3.</_></rects>
      <tilted>0</tilted></_>
    <_>
      <rects>
        <_>
          21 5 3 4 -1.</_>
        <_>
          21 7 3 2 2.</_></rects>
      <tilted>0</tilted></_>
    <_>
      <rects>
        <_>
          21 18 3 1 -1.</_>
        <_>
          22 18 1 1 3.</_></rects>
      <tilted>0</tilted></_>
    <_>
      <rects>
        <_>
          21 18 3 5 -1.</_>
        <_>
          22 18 1 5 3.</_></rects>
      <tilted>0</tilted></_>
    <_>
      <rects>
        <_>
          21 21 3 1 -1.</_>
        <_>
          22 21 1 1 3.</_></rects>
      <tilted>0</tilted></_>
    <_>
      <rects>
        <_>
          21 23 2 1 -1.</_>
        <_>
          22 23 1 1 2.</_></rects>
      <tilted>0</tilted></_>
    <_>
      <rects>
        <_>
          22 0 2 24 -1.</_>
        <_>
          22 12 2 12 2.</_></rects>
      <tilted>0</tilted></_>
    <_>
      <rects>
        <_>
          22 1 2 2 -1.</_>
        <_>
          22 1 1 1 2.</_>
        <_>
          23 2 1 1 2.</_></rects>
      <tilted>0</tilted></_>
    <_>
      <rects>
        <_>
          22 1 2 14 -1.</_>
        <_>
          22 8 2 7 2.</_></rects>
      <tilted>0</tilted></_>
    <_>
      <rects>
        <_>
          22 3 2 1 -1.</_>
        <_>
          23 3 1 1 2.</_></rects>
      <tilted>0</tilted></_>
    <_>
      <rects>
        <_>
          22 4 2 3 -1.</_>
        <_>
          22 5 2 1 3.</_></rects>
      <tilted>0</tilted></_>
    <_>
      <rects>
        <_>
          22 5 2 4 -1.</_>
        <_>
          22 7 2 2 2.</_></rects>
      <tilted>0</tilted></_>
    <_>
      <rects>
        <_>
          22 11 2 6 -1.</_>
        <_>
          23 11 1 6 2.</_></rects>
      <tilted>0</tilted></_>
    <_>
      <rects>
        <_>
          22 17 2 1 -1.</_>
        <_>
          23 17 1 1 2.</_></rects>
      <tilted>0</tilted></_>
    <_>
      <rects>
        <_>
          22 19 2 5 -1.</_>
        <_>
          23 19 1 5 2.</_></rects>
      <tilted>0</tilted></_>
    <_>
      <rects>
        <_>
          22 22 2 2 -1.</_>
        <_>
          23 22 1 2 2.</_></rects>
      <tilted>0</tilted></_>
    <_>
      <rects>
        <_>
          23 6 1 18 -1.</_>
        <_>
          23 15 1 9 2.</_></rects>
      <tilted>0</tilted></_>
    <_>
      <rects>
        <_>
          23 19 1 2 -1.</_>
        <_>
          23 20 1 1 2.</_></rects>
      <tilted>0</tilted></_></features></cascade>
</opencv_storage>
