<?xml version="1.0"?>
<opencv_storage>
<stage17>
  <maxWeakCount>5</maxWeakCount>
  <stageThreshold>-1.6184327602386475e+00</stageThreshold>
  <weakClassifiers>
    <_>
      <internalNodes>
        0 -1 6612 -562564649 -55348321 318853969 1396542043 -191894593
        -55995622 -372528705 -644878313</internalNodes>
      <leafValues>
        -8.2040816545486450e-01 -7.9999998211860657e-02</leafValues></_>
    <_>
      <internalNodes>
        0 -1 2000 1862118195 1062912403 -956234427 -108197871 870396895
        1942161538 1808419262 2103683599</internalNodes>
      <leafValues>
        -7.6397830247879028e-01 1.6370609402656555e-01</leafValues></_>
    <_>
      <internalNodes>
        0 -1 4901 -1035340966 1709091718 1359041920 227852863 -251032352
        2039071108 -1979672373 1473710315</internalNodes>
      <leafValues>
        -7.0104086399078369e-01 3.2053893804550171e-01</leafValues></_>
    <_>
      <internalNodes>
        0 -1 4018 -157369128 -430717677 -1795066881 -1587883899 84493296
        -392131957 -624231966 -1466037331</internalNodes>
      <leafValues>
        -6.0258066654205322e-01 4.3264892697334290e-01</leafValues></_>
    <_>
      <internalNodes>
        0 -1 1492 406598512 -535442031 -2130386917 -1222995934
        -670526531 -108527478 -1960728616 -2008122543</internalNodes>
      <leafValues>
        -6.7968893051147461e-01 4.4878000020980835e-01</leafValues></_></weakClassifiers></stage17>
</opencv_storage>
