<?xml version="1.0"?>
<opencv_storage>
<cascade>
  <stageType>BOOST</stageType>
  <featureType>LBP</featureType>
  <height>24</height>
  <width>24</width>
  <stageParams>
    <boostType>GAB</boostType>
    <minHitRate>9.9500000476837158e-01</minHitRate>
    <maxFalseAlarm>5.0000000000000000e-01</maxFalseAlarm>
    <weightTrimRate>9.4999999999999996e-01</weightTrimRate>
    <maxDepth>1</maxDepth>
    <maxWeakCount>100</maxWeakCount></stageParams>
  <featureParams>
    <maxCatCount>256</maxCatCount>
    <featSize>1</featSize></featureParams>
  <stageNum>20</stageNum>
  <stages>
    <!-- stage 0 -->
    <_>
      <maxWeakCount>3</maxWeakCount>
      <stageThreshold>-1.0991970300674438e+00</stageThreshold>
      <weakClassifiers>
        <_>
          <internalNodes>
            0 -1 40 -40118273 -143439483 1612009951 -577027735
            -1449395969 -1164377959 -561124353 -2004318005</internalNodes>
          <leafValues>
            -8.7972843647003174e-01 5.8389264345169067e-01</leafValues></_>
        <_>
          <internalNodes>
            0 -1 15 1504655765 1070956819 -1325326849 -1659697829
            134951615 1065894090 193489403 -10759429</internalNodes>
          <leafValues>
            -8.8243764638900757e-01 5.6054687500000000e-01</leafValues></_>
        <_>
          <internalNodes>
            0 -1 6 -1920067243 1565921296 1560691167 -548273843
            -1677713198 -125829106 -1467413319 -1632397303</internalNodes>
          <leafValues>
            -7.6292330026626587e-01 6.6296905279159546e-01</leafValues></_></weakClassifiers></_>
    <!-- stage 1 -->
    <_>
      <maxWeakCount>3</maxWeakCount>
      <stageThreshold>-1.3064669370651245e+00</stageThreshold>
      <weakClassifiers>
        <_>
          <internalNodes>
            0 -1 57 -77594625 -42495993 1895921759 -612906345 -276247329
            -58013558 -1198859813 -926627161</internalNodes>
          <leafValues>
            -8.7927567958831787e-01 2.9032257199287415e-01</leafValues></_>
        <_>
          <internalNodes>
            0 -1 85 101071989 1906067460 872513757 -1181167429 822229502
            -20807552 -1902003569 -1464065538</internalNodes>
          <leafValues>
            -8.3158296346664429e-01 3.7250554561614990e-01</leafValues></_>
        <_>
          <internalNodes>
            0 -1 29 -746892809 -782237675 -2130636577 2097350995
            -106820177 -892731222 -1010595125 2068129323</internalNodes>
          <leafValues>
            -7.6520657539367676e-01 5.0655764341354370e-01</leafValues></_></weakClassifiers></_>
    <!-- stage 2 -->
    <_>
      <maxWeakCount>3</maxWeakCount>
      <stageThreshold>-1.3046059608459473e+00</stageThreshold>
      <weakClassifiers>
        <_>
          <internalNodes>
            0 -1 9 -149029897 -241987563 -2147384873 -39861921
            -527574897 -1987358584 -1417443169 -1089999573</internalNodes>
          <leafValues>
            -8.3768117427825928e-01 3.2413792610168457e-01</leafValues></_>
        <_>
          <internalNodes>
            0 -1 23 -711459333 894384534 1090531651 961873031 -928384853
            -1165014904 -385103713 964631419</internalNodes>
          <leafValues>
            -8.9419180154800415e-01 2.7063110470771790e-01</leafValues></_>
        <_>
          <internalNodes>
            0 -1 50 -787369046 1998131280 285487259 -115458047
            -1065320206 -1161125736 412172954 -1073133382</internalNodes>
          <leafValues>
            -7.3755586147308350e-01 4.4446918368339539e-01</leafValues></_></weakClassifiers></_>
    <!-- stage 3 -->
    <_>
      <maxWeakCount>5</maxWeakCount>
      <stageThreshold>-1.5837967395782471e+00</stageThreshold>
      <weakClassifiers>
        <_>
          <internalNodes>
            0 -1 24 -44051457 -15607565 268534267 -619063973 -821319522
            -15166437 -733492293 -83367029</internalNodes>
          <leafValues>
            -8.2982790470123291e-01 3.5820895433425903e-01</leafValues></_>
        <_>
          <internalNodes>
            0 -1 5 1599813553 1005578719 1565868319 530444759 839528895
            457810058 444684747 2076644046</internalNodes>
          <leafValues>
            -9.3148392438888550e-01 1.9694069027900696e-01</leafValues></_>
        <_>
          <internalNodes>
            0 -1 65 -1039598598 -615280533 -520072485 -187641574
            -1610477528 -502585191 -1965502764 -402146229</internalNodes>
          <leafValues>
            -7.8249084949493408e-01 3.6171516776084900e-01</leafValues></_>
        <_>
          <internalNodes>
            0 -1 13 1474167603 -217050875 -1851764263 -1783119334
            -654169854 -16547328 690650811 -649502369</internalNodes>
          <leafValues>
            -7.0346271991729736e-01 4.6677383780479431e-01</leafValues></_>
        <_>
          <internalNodes>
            0 -1 0 -661196751 -2100195120 285237516 -304283246
            -133656137 -223833702 -1744188453 -2001494016</internalNodes>
          <leafValues>
            -7.1896618604660034e-01 5.3504407405853271e-01</leafValues></_></weakClassifiers></_>
    <!-- stage 4 -->
    <_>
      <maxWeakCount>4</maxWeakCount>
      <stageThreshold>-1.0594249963760376e+00</stageThreshold>
      <weakClassifiers>
        <_>
          <internalNodes>
            0 -1 48 -115884815 1411121437 -1677623137 -44216195
            -1342134133 -1165885299 -116668167 -269496129</internalNodes>
          <leafValues>
            -8.2273602485656738e-01 2.3943662643432617e-01</leafValues></_>
        <_>
          <internalNodes>
            0 -1 37 -762916033 -796684215 159469598 1998012703
            -1065180957 -510754685 -1065344902 1657754543</internalNodes>
          <leafValues>
            -8.7074106931686401e-01 2.0362125337123871e-01</leafValues></_>
        <_>
          <internalNodes>
            0 -1 14 -211840719 1434670360 -536342193 1897206413
            -368209685 -1451194368 1133243647 2068049999</internalNodes>
          <leafValues>
            -6.5748983621597290e-01 5.0252628326416016e-01</leafValues></_>
        <_>
          <internalNodes>
            0 -1 73 746562519 180965847 -1857777284 770167233
            -1182704742 1569343647 -1924609889 1001119983</internalNodes>
          <leafValues>
            -8.4499299526214600e-01 4.1701465845108032e-01</leafValues></_></weakClassifiers></_>
    <!-- stage 5 -->
    <_>
      <maxWeakCount>3</maxWeakCount>
      <stageThreshold>-1.4645245075225830e+00</stageThreshold>
      <weakClassifiers>
        <_>
          <internalNodes>
            0 -1 22 -44830737 -551292750 -649997873 -12717309
            -2079478341 -72769144 -1417630977 -666579134</internalNodes>
          <leafValues>
            -8.7845301628112793e-01 -9.0909093618392944e-02</leafValues></_>
        <_>
          <internalNodes>
            0 -1 30 -783354073 -1178340737 -2130666665 826313475
            -896795985 -87766777 -90449201 -278404517</internalNodes>
          <leafValues>
            -6.7124044895172119e-01 4.2385268211364746e-01</leafValues></_>
        <_>
          <internalNodes>
            0 -1 64 -648025874 -544110362 -230616545 -49512161
            1226893964 -1415380864 318962398 -329129458</internalNodes>
          <leafValues>
            -7.0237493515014648e-01 4.5814761519432068e-01</leafValues></_></weakClassifiers></_>
    <!-- stage 6 -->
    <_>
      <maxWeakCount>5</maxWeakCount>
      <stageThreshold>-1.5002695322036743e+00</stageThreshold>
      <weakClassifiers>
        <_>
          <internalNodes>
            0 -1 25 -681714757 -149818521 -804941423 -40639725
            -401946081 -1207205368 -2105488705 -11539777</internalNodes>
          <leafValues>
            -8.1870782375335693e-01 2.0279720425605774e-01</leafValues></_>
        <_>
          <internalNodes>
            0 -1 68 -724372758 -204173229 -2130624101 1930387715
            -497944291 -258633600 -565884070 -355667934</internalNodes>
          <leafValues>
            -7.0918279886245728e-01 3.5706201195716858e-01</leafValues></_>
        <_>
          <internalNodes>
            0 -1 78 -2075032342 -1173815232 -1794042791 -44236137
            1082176445 -1213562693 688433337 -60323190</internalNodes>
          <leafValues>
            -5.9460288286209106e-01 5.4797732830047607e-01</leafValues></_>
        <_>
          <internalNodes>
            0 -1 56 1314891567 1066636997 50562261 903475343 2034770483
            2061025769 251829443 1071629594</internalNodes>
          <leafValues>
            -7.8823179006576538e-01 4.4240650534629822e-01</leafValues></_>
        <_>
          <internalNodes>
            0 -1 33 -1555813516 -1870593055 -1342140271 -15663014
            -2013232732 1082165888 -1467473135 -1193457244</internalNodes>
          <leafValues>
            -7.5362950563430786e-01 4.6790438890457153e-01</leafValues></_></weakClassifiers></_>
    <!-- stage 7 -->
    <_>
      <maxWeakCount>5</maxWeakCount>
      <stageThreshold>-1.3789628744125366e+00</stageThreshold>
      <weakClassifiers>
        <_>
          <internalNodes>
            0 -1 43 -179842217 -136740852 1074008509 -44760673
            -788078419 -242614135 -779367493 -10038</internalNodes>
          <leafValues>
            -7.8447490930557251e-01 4.5882353186607361e-01</leafValues></_>
        <_>
          <internalNodes>
            0 -1 84 114558804 -1835327143 1343287703 2127178641
            -1610505065 -83255096 -644887854 -341173493</internalNodes>
          <leafValues>
            -7.6976031064987183e-01 2.8238853812217712e-01</leafValues></_>
        <_>
          <internalNodes>
            0 -1 10 -788639017 -602402593 289407629 1423827710
            -859125623 -581464005 -645021249 1410410761</internalNodes>
          <leafValues>
            -7.8992503881454468e-01 3.4777486324310303e-01</leafValues></_>
        <_>
          <internalNodes>
            0 -1 1 1524107993 -1753116015 276877721 -1617227688
            -536155661 -1182236251 545962669 -1113128428</internalNodes>
          <leafValues>
            -6.1019241809844971e-01 5.0012218952178955e-01</leafValues></_>
        <_>
          <internalNodes>
            0 -1 69 -367801068 -1944256437 1728135248 -2079195096
            -243203935 -1189609343 -1333550959 -1180599709</internalNodes>
          <leafValues>
            -6.1445897817611694e-01 5.4770195484161377e-01</leafValues></_></weakClassifiers></_>
    <!-- stage 8 -->
    <_>
      <maxWeakCount>4</maxWeakCount>
      <stageThreshold>-1.7737048864364624e+00</stageThreshold>
      <weakClassifiers>
        <_>
          <internalNodes>
            0 -1 67 -773393409 -717125477 1358975255 -539426101
            1225492651 -594704186 -1412513365 -1074549</internalNodes>
          <leafValues>
            -7.7717393636703491e-01 5.0000000000000000e-01</leafValues></_>
        <_>
          <internalNodes>
            0 -1 8 303606579 1527042185 352404943 -16449391 813741020
            1535738002 423928481 -1165262693</internalNodes>
          <leafValues>
            -6.9694811105728149e-01 3.3118644356727600e-01</leafValues></_>
        <_>
          <internalNodes>
            0 -1 17 -715792486 -658091753 139987393 1057397385
            -483926593 2131432649 -355802249 562035198</internalNodes>
          <leafValues>
            -8.1236171722412109e-01 3.3299064636230469e-01</leafValues></_>
        <_>
          <internalNodes>
            0 -1 70 -487291548 -147840864 -1853318709 1000253968
            -1021957707 1904771221 -401368774 -1899501297</internalNodes>
          <leafValues>
            -6.3257348537445068e-01 4.7454094886779785e-01</leafValues></_></weakClassifiers></_>
    <!-- stage 9 -->
    <_>
      <maxWeakCount>5</maxWeakCount>
      <stageThreshold>-1.3893884420394897e+00</stageThreshold>
      <weakClassifiers>
        <_>
          <internalNodes>
            0 -1 51 -975711755 -10792526 1493254623 -544263287
            -2147379014 -1146470256 706972319 -276802869</internalNodes>
          <leafValues>
            -7.9549717903137207e-01 2.4561403691768646e-01</leafValues></_>
        <_>
          <internalNodes>
            0 -1 71 -1048522490 808704266 -780074576 1028911891
            -804626079 -1012285248 -242280289 -67671490</internalNodes>
          <leafValues>
            -6.5934091806411743e-01 3.8680395483970642e-01</leafValues></_>
        <_>
          <internalNodes>
            0 -1 27 262124368 -1757376457 -1254041567 -48982105
            1612706302 2049478824 1271733146 1072683691</internalNodes>
          <leafValues>
            -7.3373293876647949e-01 4.1300317645072937e-01</leafValues></_>
        <_>
          <internalNodes>
            0 -1 39 1150858076 -56848366 1564635535 -552561397
            -2113873734 -75267412 -1467970854 -335478742</internalNodes>
          <leafValues>
            -6.0424625873565674e-01 5.0627821683883667e-01</leafValues></_>
        <_>
          <internalNodes>
            0 -1 82 751572669 268955972 -1860071081 -1717632685
            -2138873445 -637402973 -376870189 -1366300689</internalNodes>
          <leafValues>
            -7.5324052572250366e-01 4.1338509321212769e-01</leafValues></_></weakClassifiers></_>
    <!-- stage 10 -->
    <_>
      <maxWeakCount>5</maxWeakCount>
      <stageThreshold>-1.3541791439056396e+00</stageThreshold>
      <weakClassifiers>
        <_>
          <internalNodes>
            0 -1 74 -232794113 -783552171 21102595 -677920497 -938218497
            -41828325 -209478677 -69208885</internalNodes>
          <leafValues>
            -7.7676951885223389e-01 4.6153846383094788e-01</leafValues></_>
        <_>
          <internalNodes>
            0 -1 4 -1890576171 2136262933 -1811643393 1531281674
            -644258885 -1415544664 -379971157 -1081087245</internalNodes>
          <leafValues>
            -5.8604896068572998e-01 4.8739257454872131e-01</leafValues></_>
        <_>
          <internalNodes>
            0 -1 54 -2126474700 -712859568 1360005468 -545385571
            -519602046 2108162098 -1190023973 -1032873054</internalNodes>
          <leafValues>
            -6.8599277734756470e-01 4.2710945010185242e-01</leafValues></_>
        <_>
          <internalNodes>
            0 -1 46 -749148276 -665640157 286263759 -8519022 -905394158
            -1279613782 1124697006 -2006676921</internalNodes>
          <leafValues>
            -7.9818248748779297e-01 3.7168666720390320e-01</leafValues></_>
        <_>
          <internalNodes>
            0 -1 83 76954109 -1280065061 -788446817 776659089 1885898875
            1814758281 -901355381 -1345766998</internalNodes>
          <leafValues>
            -7.5049608945846558e-01 4.2358666658401489e-01</leafValues></_></weakClassifiers></_>
    <!-- stage 11 -->
    <_>
      <maxWeakCount>4</maxWeakCount>
      <stageThreshold>-1.2171252965927124e+00</stageThreshold>
      <weakClassifiers>
        <_>
          <internalNodes>
            0 -1 66 -827852929 -15693617 1543885079 -535741 -637416993
            2116528257 -1444546497 -74448933</internalNodes>
          <leafValues>
            -7.9303854703903198e-01 1.9658119976520538e-01</leafValues></_>
        <_>
          <internalNodes>
            0 -1 32 -82854603 -76625893 -903733141 462641358 378785415
            927596592 449705546 1742597095</internalNodes>
          <leafValues>
            -8.5244339704513550e-01 1.5942971408367157e-01</leafValues></_>
        <_>
          <internalNodes>
            0 -1 31 -126388447 725532767 -2147447326 -390925294
            -41318235 -1118731825 -5391907 1405026195</internalNodes>
          <leafValues>
            -7.9230731725692749e-01 2.8737595677375793e-01</leafValues></_>
        <_>
          <internalNodes>
            0 -1 28 -805289502 -586022511 286298247 -284098233
            -1341816682 1083408416 -2146810947 1142820923</internalNodes>
          <leafValues>
            -7.8082889318466187e-01 3.7011125683784485e-01</leafValues></_></weakClassifiers></_>
    <!-- stage 12 -->
    <_>
      <maxWeakCount>4</maxWeakCount>
      <stageThreshold>-1.6970412731170654e+00</stageThreshold>
      <weakClassifiers>
        <_>
          <internalNodes>
            0 -1 77 -1350241833 -612007853 268718583 -548208572
            1229693429 -90693469 -905352566 -1080063213</internalNodes>
          <leafValues>
            -8.1727904081344604e-01 1.7341040074825287e-02</leafValues></_>
        <_>
          <internalNodes>
            0 -1 38 1745461534 -985452517 -1962487345 222347283 102137
            -1822390255 1556955191 -3408961</internalNodes>
          <leafValues>
            -6.8575954437255859e-01 2.9136878252029419e-01</leafValues></_>
        <_>
          <internalNodes>
            0 -1 16 572069109 -1336835811 -216716801 -1075944877
            -779978247 -310198113 -70493957 -1376489471</internalNodes>
          <leafValues>
            -6.6148316860198975e-01 4.0888184309005737e-01</leafValues></_>
        <_>
          <internalNodes>
            0 -1 79 1209088284 1980469520 -1857824497 -49210596
            171968673 1001455617 -339961153 -1939791710</internalNodes>
          <leafValues>
            -6.0288453102111816e-01 4.6076595783233643e-01</leafValues></_></weakClassifiers></_>
    <!-- stage 13 -->
    <_>
      <maxWeakCount>5</maxWeakCount>
      <stageThreshold>-1.4700413942337036e+00</stageThreshold>
      <weakClassifiers>
        <_>
          <internalNodes>
            0 -1 75 -498740225 -539975413 1359451293 -1315605133
            -167540805 -83877383 -115373121 -34214917</internalNodes>
          <leafValues>
            -8.2347041368484497e-01 5.4644807241857052e-03</leafValues></_>
        <_>
          <internalNodes>
            0 -1 20 2135945779 1497424138 1776391519 -587083769
            1602484081 974914720 1527910750 -344514149</internalNodes>
          <leafValues>
            -7.4135231971740723e-01 2.1357952058315277e-01</leafValues></_>
        <_>
          <internalNodes>
            0 -1 44 -413798161 -670395169 1316659 731316269 -1442732037
            -608468990 -402019971 176266454</internalNodes>
          <leafValues>
            -6.3577210903167725e-01 3.9370155334472656e-01</leafValues></_>
        <_>
          <internalNodes>
            0 -1 60 -456663185 -547585854 1380014047 323652690
            -1861238344 -65664767 -1292206 -884623150</internalNodes>
          <leafValues>
            -5.8155924081802368e-01 4.9049004912376404e-01</leafValues></_>
        <_>
          <internalNodes>
            0 -1 63 -1870475044 -519749609 -2147395189 1203704607
            964919705 -41242614 -1689720021 13125633</internalNodes>
          <leafValues>
            -9.0451538562774658e-01 3.5718080401420593e-01</leafValues></_></weakClassifiers></_>
    <!-- stage 14 -->
    <_>
      <maxWeakCount>4</maxWeakCount>
      <stageThreshold>-1.0050537586212158e+00</stageThreshold>
      <weakClassifiers>
        <_>
          <internalNodes>
            0 -1 58 -69735769 1368786514 -1861991408 -34858233
            -532078370 -300777272 -434661201 -74452597</internalNodes>
          <leafValues>
            -8.1250000000000000e-01 7.6923079788684845e-02</leafValues></_>
        <_>
          <internalNodes>
            0 -1 2 -778227659 -799209130 -1275035169 -1651173491
            -1069492331 -116848503 -400447311 -58235710</internalNodes>
          <leafValues>
            -6.5448033809661865e-01 3.2177874445915222e-01</leafValues></_>
        <_>
          <internalNodes>
            0 -1 26 333231989 -767193007 894443806 -1252445439
            1747325115 -1689369566 -1970287152 -1376183328</internalNodes>
          <leafValues>
            -6.7336690425872803e-01 3.8263729214668274e-01</leafValues></_>
        <_>
          <internalNodes>
            0 -1 61 -656685561 -432259070 1090634011 1942983052
            -1643664969 2056931457 1845534914 1197054547</internalNodes>
          <leafValues>
            -7.3038864135742188e-01 3.8281562924385071e-01</leafValues></_></weakClassifiers></_>
    <!-- stage 15 -->
    <_>
      <maxWeakCount>5</maxWeakCount>
      <stageThreshold>-1.3787504434585571e+00</stageThreshold>
      <weakClassifiers>
        <_>
          <internalNodes>
            0 -1 35 -211954177 -578512229 -972816353 -37117627
            -225787655 -103692152 -745422161 -268436545</internalNodes>
          <leafValues>
            -7.7111715078353882e-01 3.6708861589431763e-01</leafValues></_>
        <_>
          <internalNodes>
            0 -1 3 2122528545 -610370665 -2147454893 -1115566079
            1000874938 2074673834 -366320722 -1172571989</internalNodes>
          <leafValues>
            -7.5254106521606445e-01 2.1161668002605438e-01</leafValues></_>
        <_>
          <internalNodes>
            0 -1 52 -295985020 -183196798 -1186643623 1582747755
            -1610368352 1536727202 -484212585 1759992575</internalNodes>
          <leafValues>
            -6.9386565685272217e-01 3.6146330833435059e-01</leafValues></_>
        <_>
          <internalNodes>
            0 -1 59 -632520226 1591316626 1359527619 929698075
            -651849173 -670957568 -284764630 -1633961538</internalNodes>
          <leafValues>
            -5.7074952125549316e-01 5.1442974805831909e-01</leafValues></_>
        <_>
          <internalNodes>
            0 -1 41 -758139372 1522795786 529047 -594490334 -1572093871
            -523288401 -1072979067 -729694153</internalNodes>
          <leafValues>
            -6.3981407880783081e-01 4.7400203347206116e-01</leafValues></_></weakClassifiers></_>
    <!-- stage 16 -->
    <_>
      <maxWeakCount>5</maxWeakCount>
      <stageThreshold>-1.4282193183898926e+00</stageThreshold>
      <weakClassifiers>
        <_>
          <internalNodes>
            0 -1 62 -213274113 -1720352429 479298523 -40033899
            -2137654851 -591230791 1057184235 -821100022</internalNodes>
          <leafValues>
            -8.0803132057189941e-01 3.1446542590856552e-02</leafValues></_>
        <_>
          <internalNodes>
            0 -1 7 -1659439323 -1820217061 -1861617443 -78777565
            -1693747489 -1996062069 -671022517 -337680944</internalNodes>
          <leafValues>
            -6.5194070339202881e-01 3.0696752667427063e-01</leafValues></_>
        <_>
          <internalNodes>
            0 -1 11 -677981360 -397372229 1228964317 -1109589985
            -939488007 -1986031483 -1048023623 -829103565</internalNodes>
          <leafValues>
            -5.7765406370162964e-01 4.7774150967597961e-01</leafValues></_>
        <_>
          <internalNodes>
            0 -1 19 2130323239 -652266701 -2129557345 -1452703590
            -196390321 -657440729 -989642069 7665623</internalNodes>
          <leafValues>
            -8.0548208951950073e-01 3.4959787130355835e-01</leafValues></_>
        <_>
          <internalNodes>
            0 -1 76 -121503510 -79585086 -2126483235 -112581493
            -1610417772 -1197274961 -573519077 -1709899488</internalNodes>
          <leafValues>
            -6.5086829662322998e-01 4.5598056912422180e-01</leafValues></_></weakClassifiers></_>
    <!-- stage 17 -->
    <_>
      <maxWeakCount>5</maxWeakCount>
      <stageThreshold>-1.6184327602386475e+00</stageThreshold>
      <weakClassifiers>
        <_>
          <internalNodes>
            0 -1 74 -562564649 -55348321 318853969 1396542043 -191894593
            -55995622 -372528705 -644878313</internalNodes>
          <leafValues>
            -8.2040816545486450e-01 -7.9999998211860657e-02</leafValues></_>
        <_>
          <internalNodes>
            0 -1 21 1862118195 1062912403 -956234427 -108197871
            870396895 1942161538 1808419262 2103683599</internalNodes>
          <leafValues>
            -7.6397830247879028e-01 1.6370609402656555e-01</leafValues></_>
        <_>
          <internalNodes>
            0 -1 53 -1035340966 1709091718 1359041920 227852863
            -251032352 2039071108 -1979672373 1473710315</internalNodes>
          <leafValues>
            -7.0104086399078369e-01 3.2053893804550171e-01</leafValues></_>
        <_>
          <internalNodes>
            0 -1 42 -157369128 -430717677 -1795066881 -1587883899
            84493296 -392131957 -624231966 -1466037331</internalNodes>
          <leafValues>
            -6.0258066654205322e-01 4.3264892697334290e-01</leafValues></_>
        <_>
          <internalNodes>
            0 -1 18 406598512 -535442031 -2130386917 -1222995934
            -670526531 -108527478 -1960728616 -2008122543</internalNodes>
          <leafValues>
            -6.7968893051147461e-01 4.4878000020980835e-01</leafValues></_></weakClassifiers></_>
    <!-- stage 18 -->
    <_>
      <maxWeakCount>5</maxWeakCount>
      <stageThreshold>-1.3605004549026489e+00</stageThreshold>
      <weakClassifiers>
        <_>
          <internalNodes>
            0 -1 55 -821825033 -16576077 554959295 -137391845 -661613909
            -606563624 -830223973 -68711777</internalNodes>
          <leafValues>
            -7.5822222232818604e-01 6.0000002384185791e-01</leafValues></_>
        <_>
          <internalNodes>
            0 -1 75 1719793599 -552574709 1392576596 -1122649341
            -1300002515 -88559357 -16000977 -102634639</internalNodes>
          <leafValues>
            -5.9572476148605347e-01 3.9058786630630493e-01</leafValues></_>
        <_>
          <internalNodes>
            0 -1 80 102524252 -1403469666 -644784703 995496640
            -796280414 -684752759 -390035049 -90127475</internalNodes>
          <leafValues>
            -7.5865548849105835e-01 3.3892813324928284e-01</leafValues></_>
        <_>
          <internalNodes>
            0 -1 12 -875896874 -854669833 58982857 1981010334 324600165
            -1067726709 -824628929 -1221211600</internalNodes>
          <leafValues>
            -7.4329811334609985e-01 3.4452348947525024e-01</leafValues></_>
        <_>
          <internalNodes>
            0 -1 36 -513929226 1645224594 -2139094962 1438986650
            169370022 -1672970223 -1693896516 -564181557</internalNodes>
          <leafValues>
            -5.7873409986495972e-01 5.3024035692214966e-01</leafValues></_></weakClassifiers></_>
    <!-- stage 19 -->
    <_>
      <maxWeakCount>6</maxWeakCount>
      <stageThreshold>-1.1549749374389648e+00</stageThreshold>
      <weakClassifiers>
        <_>
          <internalNodes>
            0 -1 47 -649610241 -217349885 4390933 1569030223 -783890229
            -1300168062 -251406385 -9745</internalNodes>
          <leafValues>
            -7.6301616430282593e-01 4.5454546809196472e-01</leafValues></_>
        <_>
          <internalNodes>
            0 -1 81 -641406988 -644689136 -2128588449 926073276
            -741379103 -745832248 -113948249 -1407734944</internalNodes>
          <leafValues>
            -7.1056950092315674e-01 2.3887310922145844e-01</leafValues></_>
        <_>
          <internalNodes>
            0 -1 49 -1836872153 -1666756142 -641625064 -687779169
            -657906779 -393469808 1505872903 715108295</internalNodes>
          <leafValues>
            -7.4148023128509521e-01 3.2102140784263611e-01</leafValues></_>
        <_>
          <internalNodes>
            0 -1 34 35983605 -1383235235 1358975385 1909649939
            -612283983 2056224963 1644825257 776223291</internalNodes>
          <leafValues>
            -8.4326064586639404e-01 2.9901537299156189e-01</leafValues></_>
        <_>
          <internalNodes>
            0 -1 72 -376264291 -616828785 151012420 -484811837
            -402413077 974274610 86104750 1184875811</internalNodes>
          <leafValues>
            -6.7910456657409668e-01 4.1928249597549438e-01</leafValues></_>
        <_>
          <internalNodes>
            0 -1 45 -179117740 302092307 50531097 -577421311 -1736203304
            -2084961662 -1559623554 -817829719</internalNodes>
          <leafValues>
            -5.5629152059555054e-01 5.3462654352188110e-01</leafValues></_></weakClassifiers></_></stages>
  <features>
    <_>
      <rect>
        0 1 4 2</rect></_>
    <_>
      <rect>
        0 3 1 1</rect></_>
    <_>
      <rect>
        0 5 2 1</rect></_>
    <_>
      <rect>
        0 9 6 5</rect></_>
    <_>
      <rect>
        0 11 2 1</rect></_>
    <_>
      <rect>
        0 12 7 4</rect></_>
    <_>
      <rect>
        0 13 2 1</rect></_>
    <_>
      <rect>
        0 16 2 2</rect></_>
    <_>
      <rect>
        0 18 6 1</rect></_>
    <_>
      <rect>
        1 2 4 4</rect></_>
    <_>
      <rect>
        1 3 4 3</rect></_>
    <_>
      <rect>
        1 4 2 1</rect></_>
    <_>
      <rect>
        1 4 5 3</rect></_>
    <_>
      <rect>
        1 6 3 3</rect></_>
    <_>
      <rect>
        1 8 4 4</rect></_>
    <_>
      <rect>
        1 12 7 4</rect></_>
    <_>
      <rect>
        1 19 1 1</rect></_>
    <_>
      <rect>
        2 0 7 6</rect></_>
    <_>
      <rect>
        2 2 2 1</rect></_>
    <_>
      <rect>
        2 6 3 3</rect></_>
    <_>
      <rect>
        2 11 4 3</rect></_>
    <_>
      <rect>
        2 18 6 2</rect></_>
    <_>
      <rect>
        3 0 6 3</rect></_>
    <_>
      <rect>
        3 0 7 8</rect></_>
    <_>
      <rect>
        3 2 4 4</rect></_>
    <_>
      <rect>
        3 5 3 3</rect></_>
    <_>
      <rect>
        3 14 1 1</rect></_>
    <_>
      <rect>
        3 18 3 2</rect></_>
    <_>
      <rect>
        4 2 5 1</rect></_>
    <_>
      <rect>
        4 3 4 6</rect></_>
    <_>
      <rect>
        4 6 3 3</rect></_>
    <_>
      <rect>
        4 6 4 2</rect></_>
    <_>
      <rect>
        4 7 5 4</rect></_>
    <_>
      <rect>
        4 14 1 1</rect></_>
    <_>
      <rect>
        4 21 1 1</rect></_>
    <_>
      <rect>
        5 4 2 2</rect></_>
    <_>
      <rect>
        5 8 2 1</rect></_>
    <_>
      <rect>
        5 8 5 2</rect></_>
    <_>
      <rect>
        5 16 3 2</rect></_>
    <_>
      <rect>
        6 0 3 1</rect></_>
    <_>
      <rect>
        6 0 6 5</rect></_>
    <_>
      <rect>
        6 5 2 3</rect></_>
    <_>
      <rect>
        6 6 1 1</rect></_>
    <_>
      <rect>
        6 7 1 1</rect></_>
    <_>
      <rect>
        7 0 2 3</rect></_>
    <_>
      <rect>
        7 0 5 1</rect></_>
    <_>
      <rect>
        7 0 5 2</rect></_>
    <_>
      <rect>
        7 4 1 3</rect></_>
    <_>
      <rect>
        7 8 1 1</rect></_>
    <_>
      <rect>
        7 8 3 4</rect></_>
    <_>
      <rect>
        8 1 4 1</rect></_>
    <_>
      <rect>
        8 1 5 1</rect></_>
    <_>
      <rect>
        8 2 2 2</rect></_>
    <_>
      <rect>
        8 3 2 1</rect></_>
    <_>
      <rect>
        8 8 3 1</rect></_>
    <_>
      <rect>
        8 10 3 1</rect></_>
    <_>
      <rect>
        8 11 4 4</rect></_>
    <_>
      <rect>
        9 0 5 5</rect></_>
    <_>
      <rect>
        9 4 1 1</rect></_>
    <_>
      <rect>
        9 6 1 1</rect></_>
    <_>
      <rect>
        9 6 3 3</rect></_>
    <_>
      <rect>
        9 12 3 2</rect></_>
    <_>
      <rect>
        10 0 3 1</rect></_>
    <_>
      <rect>
        10 0 4 4</rect></_>
    <_>
      <rect>
        10 3 2 3</rect></_>
    <_>
      <rect>
        10 5 3 3</rect></_>
    <_>
      <rect>
        10 5 3 4</rect></_>
    <_>
      <rect>
        10 8 1 1</rect></_>
    <_>
      <rect>
        10 8 3 2</rect></_>
    <_>
      <rect>
        10 15 1 1</rect></_>
    <_>
      <rect>
        11 3 1 1</rect></_>
    <_>
      <rect>
        11 4 1 1</rect></_>
    <_>
      <rect>
        11 5 4 2</rect></_>
    <_>
      <rect>
        11 12 4 4</rect></_>
    <_>
      <rect>
        12 6 2 3</rect></_>
    <_>
      <rect>
        12 7 2 2</rect></_>
    <_>
      <rect>
        13 0 3 2</rect></_>
    <_>
      <rect>
        14 7 2 1</rect></_>
    <_>
      <rect>
        15 8 3 1</rect></_>
    <_>
      <rect>
        16 2 2 1</rect></_>
    <_>
      <rect>
        17 16 1 1</rect></_>
    <_>
      <rect>
        18 3 2 2</rect></_>
    <_>
      <rect>
        18 9 2 5</rect></_>
    <_>
      <rect>
        18 18 2 2</rect></_>
    <_>
      <rect>
        20 9 1 1</rect></_>
    <_>
      <rect>
        21 17 1 1</rect></_></features></cascade>
</opencv_storage>
