<?xml version="1.0"?>
<opencv_storage>
<stage11>
  <maxWeakCount>4</maxWeakCount>
  <stageThreshold>-1.2171252965927124e+00</stageThreshold>
  <weakClassifiers>
    <_>
      <internalNodes>
        0 -1 5859 -827852929 -15693617 1543885079 -535741 -637416993
        2116528257 -1444546497 -74448933</internalNodes>
      <leafValues>
        -7.9303854703903198e-01 1.9658119976520538e-01</leafValues></_>
    <_>
      <internalNodes>
        0 -1 2973 -82854603 -76625893 -903733141 462641358 378785415
        927596592 449705546 1742597095</internalNodes>
      <leafValues>
        -8.5244339704513550e-01 1.5942971408367157e-01</leafValues></_>
    <_>
      <internalNodes>
        0 -1 2933 -126388447 725532767 -2147447326 -390925294 -41318235
        -1118731825 -5391907 1405026195</internalNodes>
      <leafValues>
        -7.9230731725692749e-01 2.8737595677375793e-01</leafValues></_>
    <_>
      <internalNodes>
        0 -1 2786 -805289502 -586022511 286298247 -284098233 -1341816682
        1083408416 -2146810947 1142820923</internalNodes>
      <leafValues>
        -7.8082889318466187e-01 3.7011125683784485e-01</leafValues></_></weakClassifiers></stage11>
</opencv_storage>
