<?xml version="1.0"?>
<opencv_storage>
<stage19>
  <maxWeakCount>6</maxWeakCount>
  <stageThreshold>-1.1549749374389648e+00</stageThreshold>
  <weakClassifiers>
    <_>
      <internalNodes>
        0 -1 4471 -649610241 -217349885 4390933 1569030223 -783890229
        -1300168062 -251406385 -9745</internalNodes>
      <leafValues>
        -7.6301616430282593e-01 4.5454546809196472e-01</leafValues></_>
    <_>
      <internalNodes>
        0 -1 8056 -641406988 -644689136 -2128588449 926073276 -741379103
        -745832248 -113948249 -1407734944</internalNodes>
      <leafValues>
        -7.1056950092315674e-01 2.3887310922145844e-01</leafValues></_>
    <_>
      <internalNodes>
        0 -1 4597 -1836872153 -1666756142 -641625064 -687779169
        -657906779 -393469808 1505872903 715108295</internalNodes>
      <leafValues>
        -7.4148023128509521e-01 3.2102140784263611e-01</leafValues></_>
    <_>
      <internalNodes>
        0 -1 3214 35983605 -1383235235 1358975385 1909649939 -612283983
        2056224963 1644825257 776223291</internalNodes>
      <leafValues>
        -8.4326064586639404e-01 2.9901537299156189e-01</leafValues></_>
    <_>
      <internalNodes>
        0 -1 6231 -376264291 -616828785 151012420 -484811837 -402413077
        974274610 86104750 1184875811</internalNodes>
      <leafValues>
        -6.7910456657409668e-01 4.1928249597549438e-01</leafValues></_>
    <_>
      <internalNodes>
        0 -1 4356 -179117740 302092307 50531097 -577421311 -1736203304
        -2084961662 -1559623554 -817829719</internalNodes>
      <leafValues>
        -5.5629152059555054e-01 5.3462654352188110e-01</leafValues></_></weakClassifiers></stage19>
</opencv_storage>
