<?xml version="1.0"?>
<opencv_storage>
<stage14>
  <maxWeakCount>4</maxWeakCount>
  <stageThreshold>-1.0050537586212158e+00</stageThreshold>
  <weakClassifiers>
    <_>
      <internalNodes>
        0 -1 5389 -69735769 1368786514 -1861991408 -34858233 -532078370
        -300777272 -434661201 -74452597</internalNodes>
      <leafValues>
        -8.1250000000000000e-01 7.6923079788684845e-02</leafValues></_>
    <_>
      <internalNodes>
        0 -1 286 -778227659 -799209130 -1275035169 -1651173491
        -1069492331 -116848503 -400447311 -58235710</internalNodes>
      <leafValues>
        -6.5448033809661865e-01 3.2177874445915222e-01</leafValues></_>
    <_>
      <internalNodes>
        0 -1 2563 333231989 -767193007 894443806 -1252445439 1747325115
        -1689369566 -1970287152 -1376183328</internalNodes>
      <leafValues>
        -6.7336690425872803e-01 3.8263729214668274e-01</leafValues></_>
    <_>
      <internalNodes>
        0 -1 5603 -656685561 -432259070 1090634011 1942983052
        -1643664969 2056931457 1845534914 1197054547</internalNodes>
      <leafValues>
        -7.3038864135742188e-01 3.8281562924385071e-01</leafValues></_></weakClassifiers></stage14>
</opencv_storage>
